16 100
__label__Altright 4.1721 -3.4149 -0.59202 2.867 -1.3184 3.9922 1.6808 -5.9042 4.6469 -2.0903 -1.669 -1.0788 1.3595 -10.806 3.4609 3.0292 3.2544 -7.278 0.27754 -2.8826 -1.5816 0.98172 -3.6659 1.3636 -1.9993 -10.176 -1.2254 -3.5512 1.0431 -3.5206 -5.4005 -1.83 8.3855 -5.0404 0.84358 0.27745 1.9239 2.765 2.9268 2.9023 -3.678 -4.6015 -5.2777 0.51352 -3.7554 -1.6819 1.7496 -0.069165 -0.55128 4.8422 -6.713 3.9495 1.9679 2.8779 5.8886 1.6824 4.1073 -2.5597 -1.1386 -5.5961 0.84612 3.3111 -1.9618 -2.7476 1.0962 3.9856 0.43759 3.9089 1.8887 -2.7528 -9.6432 -2.4751 7.5974 2.06 4.1802 1.5069 -1.1557 -9.3392 -1.5233 1.3732 0.85356 2.2645 0.4998 2.9365 -6.699 -7.637 7.3718 -1.215 -4.7838 -0.038207 -0.19075 -1.2023 2.6215 7.3456 0.94974 9.0946 -1.3452 -2.5407 -2.1876 2.6115 
__label__Anti-feminist -0.49846 -4.9899 -3.1485 -0.18502 -0.87008 -7.1128 0.73252 1.8639 2.3961 -4.7514 1.328 4.5117 2.3691 -7.6445 3.7479 -1.5994 1.6306 0.70081 -5.4516 4.0916 -0.24215 -13.645 -5.1765 4.1679 -6.6983 1.6828 4.2825 -0.94835 -3.4501 0.45987 3.0928 2.637 3.9875 -0.67545 8.4737 0.01312 -3.6644 1.6284 4.8842 0.11826 11.453 5.8616 3.8687 0.7664 -0.32419 1.7208 -6.5613 5.5906 2.6669 -7.3812 8.9381 -2.0812 -2.768 -3.9238 1.1319 2.6242 -5.5376 0.11137 -3.9817 2.6983 0.50834 -8.5264 1.7862 -9.1934 -3.4977 0.93535 7.7195 0.63579 0.81042 -5.37 2.9267 -0.21666 -1.1588 6.1358 2.72 5.1291 -8.5111 -7.2382 -0.64757 -1.6273 4.2486 5.4802 1.607 -6.0292 -2.6761 1.5453 0.96423 2.4165 4.5549 -6.642 1.2136 -0.67327 -10.679 10.799 -5.3117 4.845 1.3581 -6.1163 2.7337 5.2332 
__label__Conspiracy 1.9456 0.58807 2.7209 -0.1959 0.17302 -4.8557 -3.9378 5.0261 -4.167 -3.9794 3.8001 -6.1881 0.36055 4.4636 9.373 0.085578 -0.29495 -5.1767 5.0783 -0.87681 3.7324 -0.0071252 3.9422 0.22566 7.512 4.5813 1.9898 5.7698 -0.5986 -3.0403 -0.82102 3.6783 -3.9806 3.7134 -7.1612 -4.0185 3.4941 -4.7529 5.3629 -4.792 2.4874 -1.03 3.3969 -7.9141 3.3035 0.39236 -2.242 -0.92303 -2.6898 1.5122 0.97498 -1.2902 -1.6608 4.7734 -2.6629 -2.0912 0.77927 -1.1686 3.8245 3.5017 0.86251 4.3328 3.3559 1.7273 -5.715 -3.3359 2.7168 0.36492 5.031 -1.4944 -1.346 9.0812 -5.6004 0.1566 11.8 -1.3102 -0.96099 3.6711 -1.5744 1.1458 -4.8051 -4.6958 1.3037 2.6804 -0.72635 3.3678 4.9197 2.0174 -2.2877 1.4548 2.7251 0.40345 -4.2281 -3.7027 0.97997 3.8735 -2.1598 2.1179 3.4434 -0.18042 
__label__Black -10.984 5.8521 -1.2664 -1.0325 6.0777 -1.7692 -6.003 -0.66134 5.8885 1.1519 4.5792 -1.1236 -5.3107 1.8682 -7.1331 -7.1201 9.069 -2.8068 -2.9768 4.5106 -0.3332 -7.7637 -5.8846 -1.2357 -2.2779 2.6481 3.1614 -4.2087 3.8045 0.28848 13.729 -1.1357 -8.4412 -8.7272 -0.26987 -4.2989 -3.6778 3.8396 -5.477 2.5607 -3.2774 -4.5823 -0.87658 6.4506 4.3904 5.4842 1.6196 10.839 -2.549 -3.3889 -12.574 0.77288 -1.5625 3.0987 -0.017696 -5.1612 0.56917 1.6868 -1.5427 8.2348 8.597 -1.3903 4.0417 1.2257 -1.0442 -2.5686 -1.9444 -2.2176 3.9876 -2.506 -4.9456 -2.7312 3.7665 -2.5392 -13.514 2.8896 4.9735 6.0657 8.5193 6.7949 -2.6487 3.8782 2.0806 -7.3382 4.1003 -2.9327 -2.3667 -2.6212 -2.8302 -3.1355 1.6368 -2.8146 5.0255 3.6498 -1.0209 -12.774 0.23382 3.3857 -2.6168 3.6947 
__label__Feminist -1.2784 -1.5794 -0.43227 1.1795 1.9304 4.764 -2.4495 -0.2923 -2.1794 -4.3614 2.6378 1.5773 -6.4758 2.4924 -5.4436 -4.9494 -0.28255 0.28571 1.0997 2.4562 -1.2545 0.34222 1.8939 6.7194 -8.3896 8.5481 1.6241 2.5436 -0.62082 -3.051 3.614 4.2001 6.6516 3.2281 8.0415 0.1044 -4.2656 8.2234 1.9669 3.8673 -7.5497 -2.5914 -6.4539 4.2696 3.7246 2.3465 3.6847 5.1542 4.0201 -4.2499 2.84 -6.3522 5.0979 -1.6578 4.1877 7.6175 1.1037 0.94309 0.83619 1.0604 1.8904 -4.7989 -4.7534 2.7265 6.4332 -1.6147 8.0363 -3.4964 -8.3224 1.1851 9.8458 -0.95931 2.4486 -2.4245 -5.3495 -0.89434 -3.1977 2.1692 2.9575 3.316 -0.39298 3.0972 -4.2382 4.0419 5.0861 5.422 -3.5868 3.688 -1.1282 -0.28638 -1.0118 -0.078794 -1.1632 4.4734 -0.96518 0.063734 -3.412 -12.201 -0.11723 -1.1458 
__label__Religion -1.4203 3.6286 -4.2662 -1.2788 -3.9764 -8.227 -0.59489 -4.2279 -0.7129 -0.96898 5.2097 -0.079184 -9.3267 2.0407 5.926 8.3427 0.79663 1.3523 0.99915 -8.5462 5.8385 6.2674 -3.1799 -0.94914 5.8031 -2.3465 -5.93 -2.652 -0.49941 -2.8116 0.98507 -3.844 1.197 3.1268 9.198 5.8748 -3.1559 -3.2903 0.12261 -2.2544 -10.339 -3.3984 1.6148 5.3614 -1.0084 -6.1503 3.9602 9.0338 2.0535 3.7066 2.8867 -3.9067 0.21692 -0.1087 -5.3584 -6.9183 0.80329 -0.49978 3.067 -1.1733 7.8637 5.323 -13.975 -0.33693 3.9711 9.0883 1.1136 -4.8479 -4.2041 -0.3573 4.5662 -4.7601 11.102 -3.4206 -2.4501 -3.9076 -10.493 4.0308 2.8605 -2.9288 1.2366 -5.6571 -5.8805 6.8519 0.72216 3.5921 0.47514 -6.9588 7.5093 -2.2685 -7.2419 -1.6731 -3.2442 -0.89126 -3.3783 4.9528 -4.5018 -4.7598 9.5713 -0.86671 
__label__Anti-Trump 2.167 0.33655 7.3442 2.9053 -1.0589 3.6996 -0.96385 -0.10404 -3.7527 4.0187 -4.3309 -0.17708 0.042851 -0.053459 -3.733 0.57693 4 2.8492 0.2999 10.001 3.8634 0.26534 3.9771 -2.0398 0.32227 -2.554 0.33651 4.7445 2.8012 0.248 3.8448 4.3337 -0.7939 3.6232 -1.162 2.2367 6.1556 -1.9567 -1.4956 -1.8019 -2.2864 1.5717 -0.49571 -3.7684 3.676 -2.5112 -1.6319 -1.4721 6.1752 1.4229 5.5826 -4.6622 5.8944 -5.2717 -1.9108 -1.7189 -8.3423 -2.8221 2.0145 -0.82027 -1.3619 -2.0679 3.0846 3.3452 0.42873 -5.7183 -2.4014 0.24543 3.5781 5.8958 -0.096525 0.018928 -5.6591 2.8485 0.57769 -1.632 -0.3387 -0.10475 -8.9494 -1.0627 1.3891 -4.4048 5.5361 1.9412 5.7666 3.7713 -0.48769 -0.1572 -0.10157 5.6207 -4.1344 3.1579 1.6926 -3.72 4.6416 -6.8873 3.7495 6.0798 -2.626 -3.528 
__label__/r/The_Donald 0.6783 -1.7274 1.5971 -2.3681 2.5542 3.3413 -2.5474 -0.18827 -1.5895 2.2874 1.3621 -6.0729 -1.9926 0.43313 2.1197 5.0826 -5.9222 7.1926 2.5759 8.7916 -1.6352 0.37913 2.5831 -8.9417 -0.43079 -2.9753 -5.5971 0.96612 -2.5612 4.3568 -6.4242 -0.47398 -1.7444 1.3721 -2.0662 0.017519 6.6519 -1.8853 -3.3185 -3.876 8.2098 0.94989 1.615 -6.327 -10.501 -3.9988 -4.0609 -1.8223 -4.0298 8.4827 -0.6797 10.509 -3.7333 1.8881 -5.6672 -5.4943 -0.69042 0.72207 0.33541 0.033113 -8.0884 -6.0562 4.507 -1.447 -4.5436 -3.6918 -3.9874 -5.4644 2.0607 0.9598 -0.057757 -2.5258 -3.5184 0.29711 4.2411 0.067613 2.003 2.6244 -4.1766 5.7585 -5.4173 -2.4964 -1.7936 -3.6317 2.5458 1.1625 0.63285 -2.1726 -1.9401 -0.35206 2.3688 -2.5406 0.046217 2.5624 0.35413 -2.7972 1.5921 1.0638 -1.9307 -0.24732 
__label__Anti-altright 2.5503 0.22832 10.854 5.407 -1.9791 1.5468 -0.76675 0.13626 -0.64224 1.8403 -0.92033 -0.7118 -1.168 -3.0547 -1.8464 -3.1841 0.77133 0.32949 0.91444 3.8347 -0.52022 6.3441 10.43 -0.3724 -2.5447 2.5339 -2.3996 4.1359 2.8988 -4.7939 -4.3037 -5.7022 4.2258 -1.5919 -8.4995 -0.35299 -3.1298 -1.5807 -3.9115 6.9217 -8.7242 7.2058 -4.1795 6.5297 3.241 2.803 5.3259 -3.3764 -0.31643 2.4839 -4.3084 4.1803 4.0437 1.8838 0.20856 3.5277 -0.93367 0.24061 1.4807 -2.7137 3.8322 8.1783 -0.62879 2.9555 -2.6827 -5.7681 -3.3854 2.7728 -1.5428 -3.3135 4.855 1.3324 1.5169 0.18058 4.7352 2.0016 -2.4901 -10.766 0.21797 -0.75472 6.8802 -0.94581 -1.5977 1.5868 1.0692 1.8086 1.8124 3.6228 -2.4052 -2.8128 -2.2022 3.2946 1.7154 -0.18129 2.2418 -3.8037 3.3572 4.2547 -2.1575 -0.85829 
__label__Liberal 14.224 -7.4808 11.541 4.903 0.69724 -0.18281 -2.8092 2.1592 -10.214 -0.54662 -0.67952 -2.4487 -2.7223 3.2886 3.9729 2.3829 -6.5174 6.1969 -0.37823 4.4079 0.7235 -0.86047 -1.6658 0.14173 0.4147 6.5218 4.2974 0.6732 6.2914 -1.7617 7.3969 0.049926 -1.1785 1.3496 1.1127 -0.80172 -2.8866 3.1829 -3.2225 2.1994 -4.1351 -5.0248 -0.2091 -4.7953 2.6801 -3.2417 0.36164 -2.0203 4.7725 -1.6415 1.394 -4.0296 0.97765 -6.3691 -0.28539 -2.3664 -1.2649 -2.4992 -0.65194 3.8538 -0.64325 1.2583 2.5559 0.86518 4.84 -3.1574 -3.0833 -1.3685 4.6847 3.6872 -4.9473 0.78935 0.07951 -2.7996 -5.0264 -3.672 5.2453 3.8741 -1.9971 0.058034 2.6344 -1.5704 0.47729 0.89665 0.11031 2.8107 -2.722 1.9487 -0.58474 5.2842 -0.29143 -0.91181 -2.8205 -5.2676 0.92405 0.36619 -3.1569 0.64853 -2.0464 -2.3211 
__label__Anti-SJW -5.0217 4.824 -1.0935 -0.074124 1.351 2.1842 1.2692 -0.18106 6.691 0.092805 0.53212 5.0885 2.8487 -2.7588 -1.2233 1.0523 3.2891 -4.0485 3.9579 3.3114 -0.89081 5.3674 4.9042 3.1305 -3.483 3.5843 -0.15212 2.0535 -7.437 4.3979 -7.2856 -1.4913 -1.0288 -2.726 2.3131 -4.4638 -0.2186 -0.18806 0.36504 -1.9471 1.6452 3.1288 -5.3548 6.7211 -6.368 0.16612 -3.2543 -4.3813 -1.7799 -3.6709 1.4253 3.9502 -1.7412 3.6009 5.2211 4.6908 -0.14224 2.904 -2.834 -2.2296 -6.6682 -0.21826 7.9699 0.34189 -0.48619 4.5224 -3.2897 2.1319 -0.97904 1.6139 0.24557 -2.325 -0.63376 1.2017 1.3018 -1.3268 -5.5012 -0.35081 7.008 1.9214 4.526 -2.4603 -8.8835 -3.1877 3.5643 -4.1477 7.2574 0.10373 -5.487 -4.3546 2.1173 2.8919 6.898 -3.9996 2.4501 1.9517 7.6698 -1.6416 -0.7705 1.0146 
__label__/r/uncensorednews -0.69398 4.0833 -2.1699 -6.7123 -2.4642 10.493 5.8319 3.9197 3.9748 2.6827 -4.4565 -0.35185 3.7379 -6.8047 2.6461 1.9894 -2.1303 -5.8729 -1.8455 -2.9877 -2.7993 4.0037 -3.6723 -2.3799 -1.006 -0.87898 -3.9247 4.0506 -4.2517 -0.32081 -5.5098 0.088376 3.4064 4.0682 -6.3774 0.2294 0.30554 -2.0786 -1.4483 -0.21056 1.8678 -3.553 -0.38572 -2.1239 1.1623 -1.0345 4.8289 -5.8417 -3.5073 -0.13727 -2.0052 0.89857 0.72369 0.45711 -2.5467 -2.3523 0.67655 1.3658 -1.4834 -2.8897 0.063989 0.88073 1.9005 -2.4248 -1.4024 -2.2412 -2.2215 -0.49896 -1.4996 -4.2066 4.3347 -0.21206 -7.3073 -3.2229 0.81543 3.374 4.2902 -2.2371 -0.99799 0.93815 5.3115 -6.7845 -2.7263 4.2517 -3.3123 -1.5717 4.5267 -2.0107 -5.1928 2.7224 -0.73572 -0.47434 1.619 -0.75976 2.133 5.7991 -3.8632 0.23123 -0.078045 -1.2939 
__label__Sport -6.4412 1.605 -6.7054 3.9957 1.0186 -7.8572 9.0115 1.9576 3.624 9.3851 -0.41406 4.0738 4.5223 3.7086 -0.21765 -6.4212 0.2917 12.883 -1.3191 -14.084 -0.59582 3.9929 5.7256 2.5318 3.8175 1.1731 3.3925 -4.5549 3.5722 4.2267 -1.7581 -4.9404 -5.0002 1.2757 -0.37344 0.50318 -1.0999 -5.8543 -1.4131 -0.71499 5.2578 7.9713 3.718 2.4946 -3.3301 3.9444 -5.8344 2.5353 -0.14124 -1.7506 2.1347 2.79 -2.7772 -6.4839 1.8805 1.5605 -0.80636 -1.6514 6.6775 -0.38023 -4.0846 0.89662 -2.8964 6.0671 0.5776 1.514 -1.5489 5.051 5.9404 6.509 -1.1313 -2.4935 -0.87043 -0.6165 -6.4754 -3.9584 9.3405 9.8297 -1.7334 -9.0011 -7.2246 10.435 15.535 -9.2954 -9.4505 -1.9481 -3.3412 0.87272 4.2224 2.2407 3.6949 3.7542 -0.93227 -3.858 -0.76164 -3.4444 1.0911 4.713 -2.6364 3.7043 
__label__Conservative 5.6403 -1.1893 -1.2996 0.39456 -3.0615 -1.8716 -1.0871 -1.8341 -9.2984 -2.8499 -2.8271 -3.6912 1.2607 -5.3096 0.068154 0.72426 -2.2374 -1.3111 2.7275 -0.39856 -2.6208 0.52643 -1.488 -0.67661 3.1275 -0.94185 -1.5884 -1.0361 1.6642 -2.9056 0.55889 1.9478 -2.4069 8.7326 -5.1358 -0.93306 4.3412 5.3372 0.96791 5.2595 -0.61676 -5.2405 2.6611 -7.4548 -0.36155 -2.0491 -0.52155 -7.2754 -0.42314 2.7177 3.366 -6.0665 3.3115 -2.5627 -4.1222 4.0233 0.90283 -2.7811 -3.3177 -3.6919 -3.2152 -1.5868 -2.6836 2.9383 2.3826 1.8603 -5.9509 -3.1043 -6.9936 1.0619 7.6735 -0.35573 -0.78986 -3.9827 2.7696 2.0223 7.0921 -2.8021 -1.2878 3.6147 -4.3612 -4.3815 0.64614 0.11905 2.7443 0.85677 -2.9701 -3.7963 4.8448 10.935 -4.2198 -5.3087 -0.89025 -0.52904 1.3267 2.8497 -1.223 8.1118 0.94322 0.35212 
__label__Misc -4.9304 -0.93038 -8.3941 -5.7678 -2.0857 -4.1299 -1.4441 -0.90921 6.181 -0.10223 2.7718 5.5491 0.42393 16.016 -4.8998 1.8243 -0.64386 0.056138 -2.6094 -3.6038 5.3914 0.53823 -1.5262 0.64263 2.1967 -1.1397 4.4552 -4.2931 -6.0582 6.5612 1.5627 7.2607 -7.7137 -3.2418 1.7011 2.4985 -4.2038 4.6929 2.2814 -7.215 -0.14358 3.6068 0.62434 4.4136 2.2457 -1.3113 0.086051 -5.1553 -5.0983 0.81781 0.24021 -4.1473 -0.44678 5.5476 -1.461 -1.1315 0.24146 5.8701 -0.67375 5.4695 -4.1506 -1.9985 -0.53453 -1.1261 -1.5158 4.5984 4.5101 3.5078 -1.5748 3.1719 -2.455 6.6139 0.89585 4.3831 1.0566 1.3135 -2.1165 7.2982 1.8053 -4.2286 -5.2223 4.0459 0.18297 1.1262 -2.5313 1.329 -7.7865 4.5941 4.9981 -5.579 1.6716 -6.1875 -1.534 -8.5197 -5.0056 -1.2891 5.1201 -2.7822 5.7124 -4.7597 
__label__/r/CoonTown -1.3753 1.0631 -5.1393 -3.9427 2.993 5.6452 3.5748 -0.90775 -0.8189 -2.5544 -7.3181 0.31626 10.443 1.2797 -7.218 -1.8091 -4.2164 -6.7785 -2.6698 -6.691 -6.8201 -6.6217 -6.3153 -2.8345 4.687 -11.235 -3.837 -3.0575 3.2444 0.87869 -4.2081 -3.9843 5.0676 -7.347 -1.4204 3.2105 3.1014 -7.6838 1.9556 -0.59756 8.3783 -0.16332 5.4579 -4.7658 1.7979 5.6595 3.196 0.35218 1.5749 -4.2685 -2.5218 4.2997 -7.3634 2.0777 4.4171 1.4139 7.8657 0.41722 -2.4439 -4.6846 3.7086 1.4004 -2.1576 -4.0622 1.311 2.0335 2.9219 1.1517 -2.7599 -3.9376 -9.0398 1.1419 -2.4613 1.2858 -2.2775 -1.0416 2.5816 -5.4412 0.61846 -4.4888 1.9093 4.1598 -3.8103 2.5604 -0.9475 -8.2145 -3.8536 -1.617 0.57164 -3.5561 4.9413 7.5431 5.9335 2.7734 -0.27292 -1.8913 -4.5322 -1.5687 -3.9954 -0.75742 
