65 100
__label__baseball 4.4544 -1.1478 -2.2219 -5.9673 0.75832 -5.7593 9.682 -1.7851 16.06 3.5751 1.3741 -1.6812 12.282 2.3281 -3.6621 3.8854 3.7332 2.4109 -0.5623 -13.343 1.6036 -2.8771 4.5917 -4.0669 1.8264 0.84777 -6.6482 -0.2533 -7.0894 2.1521 -4.4924 -5.9949 2.7117 8.2102 1.3129 -3.2008 0.45615 5.1264 -4.2281 6.3664 4.9717 -3.1516 5.295 -1.4659 -4.134 2.5278 2.243 3.4414 2.0484 -0.91739 4.6052 3.3125 2.5777 3.1007 1.4901 -2.6216 3.2172 -0.9421 0.43653 9.1992 -5.1749 -4.6779 -14.019 -4.5522 5.169 2.7665 5.8809 4.5694 1.7964 4.8567 2.1084 2.1805 -10.092 -3.9457 5.5822 1.1183 5.1604 -2.6362 -8.2885 -8.8372 -9.3996 1.0633 0.3336 -0.92979 -1.9811 -7.4794 1.9153 -5.4728 -0.53328 -7.4935 7.9705 10.407 9.0665 -6.6149 10.684 -4.2486 3.941 -1.6159 4.9246 7.9603 
__label__anime -2.8929 4.607 -6.4381 -5.3156 4.9571 6.2059 2.9677 -3.5545 10.307 5.0734 6.6011 8.6869 -0.26797 -1.5487 4.8076 5.8113 -4.5932 -7.4895 3.3389 -1.0494 0.82731 5.4294 -4.9462 0.34639 1.3817 0.95821 -1.7005 1.4348 -3.8688 -1.1835 1.5405 -0.28898 -10.542 0.90031 4.0214 2.5033 -6.1042 5.7531 -7.8263 -3.8079 3.3634 3.47 12.998 -5.0296 -17.345 4.0329 -3.2688 -1.1876 -10.004 3.8013 -6.4297 6.4297 -12.54 2.4814 -3.8619 -4.8325 -5.2475 -4.4439 12.292 7.4362 -8.5079 7.3045 -4.9675 -5.4321 -6.6511 -0.95963 5.1316 3.4295 3.4437 -5.4591 -0.67569 4.0957 -5.239 12.295 8.0458 -1.7952 -6.7851 3.371 -1.4857 -5.8538 -3.2003 6.6864 -1.4384 2.2279 10.269 1.3285 2.5558 -3.1482 -6.0076 -0.16906 1.5584 4.1687 -10.603 5.4866 -2.7796 4.8218 2.0906 -3.0861 -4.0408 -2.319 
__label__TheRedPill -2.2334 0.86802 0.48244 -0.13361 -3.018 4.3358 1.4706 2.7676 -0.3461 -8.0915 -8.5029 1.9498 -6.6012 -0.84476 -7.4049 13.469 -2.9574 1.4132 -3.1287 -5.2781 -4.1801 5.6945 1.1215 0.50562 3.483 -8.6391 3.3736 9.5104 13.522 12.121 -1.7238 -0.26954 -0.35789 -18.14 -3.6273 1.5204 6.7083 -3.0403 -13.744 -4.5384 -2.5138 -0.032964 -8.457 -1.7805 -1.8826 -0.074987 9.3116 -2.5763 -5.1274 -6.6141 -2.9194 2.8816 1.8457 -0.2664 0.62994 0.89901 -0.78163 5.7183 6.2166 9.6095 6.0121 -2.2133 -5.3346 3.4873 2.8654 -0.71767 6.3957 7.1242 5.1193 1.485 -4.4328 4.4685 4.1742 1.3859 -2.7335 1.5807 -2.1075 -6.7055 4.1139 -0.81264 4.7414 -2.0343 0.28834 7.1595 0.76386 0.32279 1.7339 0.52042 -8.2679 -6.3543 2.76 -0.95549 11.659 -4.958 -1.4292 3.1372 -6.3036 1.9156 -1.1505 -1.5367 
__label__AskTrumpSupporters 2.1836 0.99945 -5.7308 -5.2918 1.9027 2.4055 -1.5627 -0.65321 2.3984 9.8736 5.016 0.22933 1.173 5.04 0.30506 -0.47532 -2.1733 -0.79101 -4.8228 -1.3205 -0.63432 0.69232 -0.90309 2.4231 -4.2315 -2.4768 -1.6733 2.067 -3.1784 -1.5515 2.016 -0.84308 -0.26622 2.5412 1.291 4.0826 1.1411 -1.1683 2.6489 4.5339 -6.5702 -1.5682 -5.1367 4.0699 7.5292 1.0874 -0.043695 -2.777 2.522 1.0173 -0.736 -4.1472 2.6084 9.8951 6.5188 0.9641 -2.7992 -5.1323 -0.0084745 -2.3974 6.0676 -5.8501 0.33698 -7.9132 9.4458 -0.38501 2.3036 -6.7396 -9.1367 -1.7149 1.6789 -0.035524 -3.0512 -1.7069 -4.3053 4.0348 1.4156 -2.9477 -5.9969 -0.55516 1.9241 -0.83293 0.57998 4.603 7.0482 0.53653 -1.3611 1.1662 -0.16 7.4367 4.656 -6.155 1.1669 0.014385 -5.6526 -0.59596 -4.7214 -11.284 -3.3152 0.17206 
__label__4chan -4.0003 -2.1774 -0.56973 4.627 -4.391 4.1863 1.9882 -2.6624 1.8198 8.5107 4.013 -1.3443 6.0656 -2.6822 0.45743 -5.1882 -1.3702 -9.2781 -6.7278 1.2075 -3.2196 -2.2369 0.92101 -6.3706 7.4715 1.3779 -8.9204 2.3715 3.3652 8.1109 -5.7913 -7.4191 -3.2509 -9.2706 -4.8149 6.7649 4.0438 2.9217 0.75485 0.49306 6.8032 1.5617 -8.2658 -2.8078 -6.6415 -0.75979 2.0155 -5.7619 -6.2448 -3.3001 1.9368 3.4052 3.1712 -5.5236 4.5559 4.2835 2.0688 -3.9281 4.9168 -1.2201 5.7221 -0.25916 0.37701 -4.0768 -13.446 2.5339 -8.6563 2.876 6.7263 5.8551 0.64121 2.1423 -3.0557 2.7715 -5.2553 -3.6283 -1.9189 -0.20836 -8.2398 -4.2778 -0.74265 3.9227 -7.4407 -4.6062 -6.1279 2.4434 -0.98288 -3.0637 -4.5477 3.1768 4.5009 -2.5139 -7.8412 2.4561 6.4682 -3.2333 4.1066 7.4203 -4.723 2.9175 
__label__uncensorednews -2.8497 3.5473 -1.3594 -0.83154 3.3337 0.4214 1.2456 4.0695 4.8264 12.613 -4.4185 -4.4367 -5.0125 0.11529 1.9408 -1.356 1.2964 3.0485 -2.152 6.3593 -3.1171 1.7246 0.493 -2.8408 6.3659 -2.0785 0.23152 -2.0382 5.564 -4.6763 -7.2364 0.54375 -0.50527 -1.9769 -4.5629 -1.9292 -2.4948 4.3867 4.2168 2.6012 -4.7834 -2.5382 -6.08 5.1364 -0.34882 -2.6711 -2.9982 1.2632 -4.2573 -4.1955 3.5311 -3.2787 -2.9117 -2.9358 -5.2575 2.8043 1.1372 0.82645 -2.1342 -4.6193 -1.7362 -0.10922 3.3071 6.2345 0.80388 5.2678 -3.5892 -3.6207 -0.15199 -1.7397 1.2477 -8.7041 -2.7595 -4.6113 -2.3361 2.827 1.2311 -3.1652 -3.5337 5.0655 1.6674 -7.7151 -1.9297 -1.9423 -7.2031 3.5836 -1.0055 -0.52138 3.4697 -1.3163 -7.8622 -3.6124 -6.5233 7.5436 2.4361 2.0843 1.454 3.5394 -2.1455 3.3995 
__label__conspiracy -2.8141 5.2794 -3.98 -0.39102 5.6689 -6.3419 -0.21115 7.8398 -5.0319 -3.8069 -0.94265 -1.9107 1.5395 6.4019 6.2707 -4.3907 3.02 0.21327 1.8902 1.6774 0.41435 -3.9053 -2.1986 2.8416 4.6798 -0.65584 -2.3699 -5.5242 5.462 4.2565 -8.527 -2.6184 -1.7637 -2.3682 -0.9055 3.8359 11.569 -11.404 -2.8612 2.2123 5.2532 4.6111 8.3942 5.9778 -3.6471 0.13782 1.9323 -1.5922 1.0123 2.6065 -2.8732 -2.1807 -5.575 6.682 -1.4793 1.1579 -0.50553 -3.0752 1.1545 -3.4818 6.9876 1.9983 7.0057 0.70465 4.9193 5.5446 -0.74852 -3.372 -0.38818 -3.4005 -0.22768 -11.599 -4.1312 3.4184 -7.1706 0.20762 10.443 0.29519 3.236 10.479 2.0283 -0.63048 1.0931 -7.4599 -0.80977 1.1122 -0.98416 5.335 1.9822 3.6892 0.39371 -0.35992 3.966 4.9009 -4.0192 5.0886 1.4617 1.8568 -0.12573 1.13 
__label__AskReddit -4.2129 -0.58501 7.0661 6.219 -1.2496 -0.57264 5.7777 -0.72839 -1.6636 12.607 4.3132 -0.097518 2.9586 -4.8653 -8.2218 1.6671 -3.2767 1.0244 -5.9268 1.7684 5.8085 0.76835 3.9066 3.1236 7.7099 -2.9699 4.1934 -4.9761 1.0705 3.4564 3.3704 -1.1021 -9.1435 0.11904 2.7769 4.5016 5.8232 -2.0037 3.9758 -11.305 -0.26139 -0.065173 -1.3794 -5.6894 2.2163 -2.4181 -6.1615 -2.9596 -1.5658 0.04078 -7.5949 5.2581 -2.3154 6.3733 4.4549 -1.3685 -6.0696 4.9815 -1.1378 -5.5495 2.2397 6.6902 2.8824 -3.4482 -2.4915 6.4008 -9.6897 5.1073 5.6136 9.9687 -2.5476 2.25 4.1681 1.4432 1.264 0.069106 9.6686 2.793 0.74019 5.158 1.8808 -0.30065 1.531 -0.34194 -1.4815 -1.3727 2.1382 -3.7908 -3.4515 1.3484 5.546 5.4271 6.4177 -12.361 -2.2903 -6.764 6.8687 7.2726 -2.7433 -9.6566 
__label__The_Donald -2.4779 1.0189 4.5235 5.9674 3.1439 -3.2983 7.2886 -0.73906 5.4666 1.5517 -3.6369 2.3365 5.1863 -0.56735 1.9448 0.84394 1.5911 3.3753 1.5476 -1.7767 -5.2499 -2.4962 7.3103 -6.4145 1.3965 -0.65432 2.1018 0.95495 3.5603 4.7486 -1.8196 -1.8781 -3.7714 3.3541 -3.2667 3.3895 5.8823 3.1123 -3.2495 2.1179 7.5919 -2.1521 2.1491 3.355 1.0135 2.0032 -1.7738 -6.47 -5.1979 -6.5105 -2.6387 -1.8401 -3.6967 -0.78607 -0.74886 -5.2355 -0.63086 -0.1506 -6.121 0.48324 2.346 -3.0408 6.5992 -1.1677 5.0656 2.8698 -4.1543 -3.1292 -10.742 0.24816 -5.6073 -9.9409 2.0978 -4.9287 2.1883 -1.0404 3.6481 0.024457 -5.2058 4.3899 2.7197 -5.0751 -5.0259 2.4135 -5.6924 -3.7915 2.6156 1.9054 5.053 5.2321 -11.012 -10.171 -4.3584 4.4299 -2.813 5.8107 2.7617 7.663 0.2547 4.2987 
__label__sports -3.7318 1.5002 -3.2178 -7.7388 -8.6124 -4.2401 3.9011 1.8977 -3.1503 0.87751 -2.5297 7.542 6.1753 6.1198 -6.2264 3.5669 0.94355 3.9162 4.8069 -11.038 -3.8317 -1.4586 -2.8341 0.10276 -3.5967 -0.63465 -1.6123 -6.3369 4.2874 -2.4016 0.99354 -6.7423 -7.6715 8.2143 1.4707 -4.2324 2.3057 7.2001 1.1999 0.87602 -7.2745 -2.8365 -4.4576 -2.3249 0.03757 -0.32152 -0.63972 -3.2588 1.6507 -1.6697 -1.3799 5.4015 -3.3976 2.6222 -4.8221 -1.6585 4.9129 1.3833 -6.3989 6.4086 -4.4859 0.32636 -2.5813 7.4467 2.6157 -0.99062 6.2599 4.1817 -4.3772 2.8945 -1.5845 4.271 -7.7313 -8.136 7.0431 7.5414 5.7595 1.7767 -0.4815 -11.833 -12.631 4.8271 9.0441 -3.7316 -4.3464 -12.502 -8.0101 4.0984 -1.4427 0.91544 13.304 4.4393 4.247 -1.4988 4.8758 -4.6072 -0.94537 7.5926 -3.4981 3.7631 
__label__Christianity 0.3143 6.2843 -0.70784 1.9167 4.1628 -3.6949 -1.0027 -10.176 2.2663 -4.2708 1.1504 3.8279 -8.1293 -0.2734 -4.1681 -1.3766 -2.1084 -2.1242 -0.31824 -5.026 5.608 -2.4422 6.3006 3.7687 -7.2006 4.7227 2.3936 -4.2369 -6.7298 1.6587 -4.6915 4.1883 -1.7489 -3.7828 -11.173 -3.4503 -1.3914 -8.8662 -1.3538 -1.6929 1.9633 -1.8948 4.5262 -3.6606 -3.9468 -8.8993 4.298 9.6047 7.9507 -0.25813 1.0606 -14.608 -0.3525 4.7542 1.9893 6.1417 -5.4619 -5.535 7.2358 3.9278 -1.4604 8.0978 4.972 -12.837 -3.041 -5.8512 -4.4605 -4.4572 -4.1846 0.20586 -12.247 -3.1031 1.6273 3.8491 1.2577 -4.0059 1.6791 -2.0529 9.1933 -0.2943 -1.6365 6.1139 5.6823 4.6856 7.9968 4.2358 6.1808 -4.1195 4.7064 -1.3013 3.8952 1.1432 0.36011 -11.39 8.8139 6.1729 -4.1064 -1.626 1.4154 0.64349 
__label__Conservative -5.8495 0.70783 1.1928 -5.721 0.71396 -0.40597 1.2268 -2.1126 5.1448 1.6651 2.5126 1.6283 -3.6151 -3.9662 -1.2172 -0.98768 -1.6875 4.3304 2.2949 3.532 -0.082869 -0.30517 -3.3228 -0.19097 -3.3009 -1.307 0.94455 0.379 -0.6335 1.8596 -5.0102 3.1906 -1.2145 1.019 -4.6054 -1.5867 -1.4795 3.1017 3.4534 3.037 2.8292 1.1668 1.0157 8.2819 8.544 -2.5445 -1.0555 1.4092 1.0767 2.129 1.0832 -2.2728 -1.5736 -0.099096 1.2615 -1.3317 2.3699 7.5793 -5.5754 -0.98148 -3.1799 -1.4749 1.8309 0.059702 7.9972 4.7807 -2.4909 -3.9902 -9.2076 -2.2504 1.4504 -2.2451 -0.53252 -8.1892 -1.5636 2.247 4.1386 -0.15758 -2.4614 -1.4921 5.459 -5.9603 -3.7069 6.83 -2.3072 -2.519 0.63878 2.4839 1.5657 3.1168 -6.1268 -0.45376 -4.2206 3.2674 -1.0016 4.0268 -2.3484 5.2647 -1.9991 3.7727 
__label__Fuckthealtright -3.16 2.077 -1.9997 3.0022 -4.0691 1.1784 -5.7849 -2.0541 -2.0403 -2.089 2.4487 -3.5495 6.0096 5.5778 -1.7179 -1.556 2.7675 1.4423 0.28126 2.4969 2.3058 2.4334 3.2002 4.8436 -0.030796 -5.1558 -3.743 -3.3749 -3.6714 2.675 1.3833 -4.3558 -1.6837 3.2183 3.1059 2.024 4.3862 -2.4406 2.1779 1.3165 -1.6464 0.70511 -4.3857 0.45493 3.4804 5.3454 0.96983 2.9302 -1.2614 -2.4462 4.7351 0.45664 5.04 -4.813 -0.04796 -2.2583 4.8919 3.8727 0.32013 -0.37934 -1.5661 1.8463 3.019 4.3314 -4.9624 8.7404 -1.4895 -1.4793 -7.4441 0.053969 6.207 1.8038 4.4634 2.3703 -1.6401 -4.0928 -6.6352 -3.3583 0.18785 -0.5459 0.92371 -0.0015374 1.854 0.31163 -2.9739 2.3001 -6.2709 5.9777 3.0128 3.2988 -3.0619 -4.0307 0.16692 0.23488 3.9722 3.8799 -1.6897 -6.6385 2.5824 2.6181 
__label__SandersForPresident 4.0085 -0.029983 3.2345 6.8138 1.3675 -0.2873 -0.97399 2.2397 -1.3235 -4.7346 3.8492 -5.7923 9.8878 1.9957 -6.7274 2.8215 2.159 5.3579 -6.1772 1.4977 2.4507 0.081265 -8.0727 0.26919 0.058512 -2.7987 5.5285 -1.8572 -5.5841 5.0421 -1.8114 7.3172 1.3857 1.7994 -3.5838 -3.8844 -2.5385 -3.0819 -4.0774 4.3057 1.8626 3.9833 7.4374 0.77019 6.3746 3.3756 -4.1614 -0.52601 4.8988 6.7204 3.21 -5.0928 0.67021 0.45211 0.98208 8.2718 6.6984 -0.21745 2.2487 2.6024 8.0646 -2.6448 -1.5141 -0.69291 7.9735 2.8312 5.0473 1.0786 -1.1588 -9.5912 -6.947 -0.77564 5.0005 -4.81 3.169 3.2204 0.44946 -2.7904 10.292 1.2106 -8.1373 0.85433 -11.08 -5.7893 2.4999 2.4238 -1.8871 3.6281 0.84184 -1.3226 -4.5334 -0.56557 1.0014 1.5173 -4.7846 -3.7751 -2.0482 -1.1326 2.5539 6.2046 
__label__PoliticalDiscussion 3.4847 -7.7196 -2.4839 -10.621 -6.3621 -2.8959 -1.9465 2.2463 6.7627 5.3931 -1.2398 -0.56006 4.7784 -1.7432 -5.0332 -0.329 -1.3009 -4.2609 -3.0812 3.5168 -1.9724 0.92317 -2.0111 3.354 -2.5538 5.4609 -1.3069 -1.1122 -11.816 3.2131 0.71879 0.34728 0.11901 3.9122 -0.58266 -4.6993 -4.4105 2.7524 -3.3677 0.24586 -3.034 3.3475 -7.4226 -3.1301 9.5576 1.1183 0.35563 -2.5831 3.937 6.1158 -0.91876 -6.5024 -0.59405 -0.22856 1.7388 3.6143 1.6023 4.751 -4.3096 -2.7973 0.10528 -1.5749 -0.053598 -3.4263 4.6015 1.8414 0.13846 0.96193 -8.3654 -7.2149 -0.77751 1.0346 1.9185 -7.9075 -3.9951 6.8401 3.5809 -5.5348 3.5539 -5.0973 6.7115 1.4829 -6.453 0.38962 5.6071 0.36773 4.5375 2.0021 -11.026 1.3105 4.6769 3.2229 4.1524 3.9249 -3.0973 2.6123 -13.363 -2.6694 -2.2634 -0.26283 
__label__CringeAnarchy -5.1933 -7.5323 2.227 2.1745 -3.5254 1.7649 -6.4428 -0.90967 0.40446 -0.99751 5.7684 6.0987 1.9616 0.4093 5.9639 -1.0748 -0.14721 2.4675 1.7071 -0.89086 -2.3119 -0.11866 1.3395 -4.576 5.2648 -4.9555 -3.9959 6.8933 -2.2845 7.9378 -3.5117 -2.9091 -6.8521 -2.9334 -6.6643 9.773 5.7085 2.6021 4.3454 2.1029 0.88276 8.7003 -3.2366 0.40129 -7.9602 -1.4965 -1.8381 -6.2368 -0.61219 3.952 2.9339 -0.55987 2.1993 -4.3997 2.3182 -3.7941 1.2478 -2.1548 2.264 0.36184 -4.2043 2.4686 1.4431 -1.0012 -11.006 -0.82288 -11.626 5.7148 4.106 8.4638 9.7473 7.7928 -2.2689 -2.0027 -1.3801 -1.3054 -1.43 -0.86925 -1.3403 3.0692 -3.107 -3.1744 -0.18096 5.3276 0.39683 0.30625 -1.9291 3.1757 8.8175 -0.027948 -6.783 0.98396 -3.0363 0.33436 3.8576 1.454 3.6881 0.67078 -0.50022 2.2195 
__label__funny -3.2202 -4.5057 -2.2909 -0.2589 0.86611 -8.9572 1.0518 -1.724 -3.3981 -1.6756 3.1988 1.9364 1.6761 -1.1516 1.9661 -1.9965 -3.7677 0.17746 1.6438 -5.7166 -5.4221 2.0489 1.2965 -6.4315 4.2438 -1.1171 2.7519 -1.661 1.2233 7.0284 -3.1919 -0.024017 -4.8826 -3.4931 0.5273 -5.2041 3.036 -3.5104 10.096 -2.6476 3.3848 -1.5055 -1.0738 -0.39184 -2.3826 1.3617 -0.45049 -0.90145 -2.3156 6.0447 -11.624 7.3524 -6.7461 3.3798 12.982 -8.2138 0.93828 2.3134 3.0081 -0.54944 -12.333 1.7603 2.2861 1.3845 -9.4494 -6.5914 -4.5068 5.2274 5.3579 7.5566 0.38823 -3.2634 1.318 -0.92088 1.0423 0.11043 -0.052864 4.7789 -0.53186 -0.39417 0.075036 1.6486 0.59184 -0.9609 -3.8734 -4.0418 -3.9585 -1.1463 6.2767 0.8824 2.9026 -2.4265 2.1253 -1.4312 1.6361 -6.4775 4.7456 3.5794 -0.80918 -1.3346 
__label__science 7.6517 0.38016 -4.3083 1.5509 1.5758 7.0796 -0.47636 11.957 -0.72898 1.2684 -0.16866 4.5513 -4.3635 2.8078 -2.7023 1.0277 -2.1734 -15.065 9.9546 13.301 -0.24662 2.8552 -7.4138 3.1876 -1.6908 11.731 3.3881 2.7747 -8.8541 -9.416 -3.9162 6.4118 -2.0185 2.9557 -2.6562 -0.41774 -1.7838 -15.655 1.3011 -2.4298 -2.7669 1.3615 -0.79165 4.233 0.056996 -3.2247 6.5262 3.4729 -0.34737 3.5371 -0.958 -7.3059 -6.1759 0.67188 2.0113 0.63768 -4.5006 3.9932 -1.792 -2.2855 6.8589 -3.7134 -1.6784 -3.0442 1.9726 -4.9056 -3.9063 5.9643 5.7033 2.8142 -5.6816 5.6011 -2.8614 0.10332 -5.0248 -1.2897 -1.5797 -6.0754 2.982 2.1103 4.2779 3.3833 7.4861 0.98139 -2.8178 -2.3679 0.72938 0.10686 0.74043 -3.5214 7.2498 1.4189 5.8544 -2.7767 -2.6797 -13.657 8.3871 14.502 -10.392 -2.5691 
__label__islam -11.392 16.68 -4.244 5.4503 7.1442 1.691 6.7412 -0.52266 2.7455 6.21 -6.1221 6.1466 4.4872 9.2891 -5.6975 -5.5747 5.0596 -2.4693 -0.36994 -5.294 0.60761 1.3114 -6.088 -4.4579 1.3583 4.2971 6.727 3.2175 2.9787 2.982 0.75836 9.7514 3.4058 -3.4525 2.6088 -1.8906 0.045919 -0.03762 -2.8921 -4.4932 -11.118 -7.0085 -4.6999 -3.5713 -7.2745 -8.2077 -1.7552 4.6128 4.4525 -1.367 1.2461 -15.11 2.4767 1.3406 -0.081386 1.8609 -1.9712 -0.6422 6.0093 -2.1003 8.8426 0.98073 -1.0938 -4.6514 -2.2737 0.74354 -4.7793 -6.9679 -3.1833 -8.6696 2.454 2.6209 4.3273 3.9899 0.50551 -6.4106 5.7995 2.3948 -1.1315 5.8044 -1.6028 5.7112 12.878 2.2117 1.7966 -1.3059 11.892 1.3632 7.4796 0.015893 -6.9691 -0.10685 -7.4337 -2.6922 1.2304 -0.52105 2.1479 -3.6356 3.9464 -2.4869 
__label__CoonTown 1.0438 6.5397 4.3234 -9.0589 -2.3347 -7.9868 -7.2334 4.1447 0.90266 -0.19783 -5.675 0.06903 -7.957 -6.5477 1.6384 -0.40975 -1.165 2.7889 -0.74794 7.4466 5.4472 -5.3891 4.6833 -1.1407 6.3668 -7.9112 0.079831 -1.6814 8.1539 -5.635 -1.4477 -2.7673 -4.1168 -10.864 -11.254 -8.4558 -3.3864 -3.2815 -2.7296 -1.8126 6.8785 2.3736 -10.693 1.7923 -2.804 -1.6661 -1.0172 -0.43372 -5.6265 2.0804 -5.1071 7.6345 -5.1717 -0.22849 -8.9198 4.927 1.7585 4.2042 -10.46 -2.5554 -0.53913 0.3763 -2.0008 0.94234 -4.2902 -3.9888 5.9049 0.7964 -0.83145 4.1264 -1.0183 -0.78542 -2.407 -6.9762 7.1139 -0.77006 2.8742 -2.8268 -8.3989 6.74 1.306 1.5038 0.13856 -4.7338 -5.6536 2.142 -3.7163 -4.0798 -2.2941 -2.4892 -4.2051 1.4289 -6.3865 3.3997 4.7008 0.83139 -3.5118 -4.4983 -0.20008 8.0487 
__label__GenderCritical 9.1353 -3.4175 7.5504 6.7492 -0.13356 10.43 -4.7801 0.1956 -7.321 -6.708 -0.18226 5.3814 -11.51 -8.2003 2.6284 5.3962 -0.71288 -0.82062 2.561 2.9518 5.0143 -2.2685 -2.8949 0.051745 -1.3333 6.0544 3.4921 7.5693 7.3322 -1.7772 1.6698 1.4349 7.9734 -2.3536 6.3746 0.062958 -3.9185 -0.45436 0.16497 1.4822 6.7195 1.8695 5.5111 7.2972 1.1052 -7.9447 5.8289 2.5124 2.0197 0.84101 -4.6676 3.6981 -9.889 -3.9983 -7.2164 -10.732 1.7676 2.4953 -3.6718 3.9217 3.4746 -4.9571 2.747 6.6705 2.1222 1.369 -9.4481 -2.7458 -0.5531 -1.5723 -0.87459 8.6081 4.6895 1.1184 -6.7494 -2.6028 4.9757 1.8326 8.9063 0.018412 -2.4328 5.3183 6.8168 1.0737 3.7008 8.3947 0.52249 6.0142 -2.7438 -4.557 -2.7375 2.8242 -1.9741 -3.1654 0.20822 -4.5323 -1.1887 -1.5458 8.4746 -4.1041 
__label__technology 1.9201 -2.76 1.5649 2.9294 1.4786 -2.3502 -1.3633 -2.6004 3.3472 9.8786 -8.6319 -3.3137 2.972 7.2956 5.4571 -5.7489 6.2097 -0.10994 0.31238 5.3907 4.0513 4.9863 -10.392 3.9457 3.174 4.0311 4.9834 -1.3672 -6.3754 -0.99539 -3.9949 2.1067 -5.3503 1.5734 -4.2388 -0.85029 -2.1531 -4.1009 -1.4573 2.8112 5.1032 4.1512 6.7437 4.3133 7.9021 4.5066 0.64592 -2.7573 -11.693 3.2274 -2.6884 3.0736 -2.4894 -0.17458 -5.035 -2.8755 0.84283 0.61761 3.8487 -3.7293 -2.0416 0.70861 -1.819 12.06 1.7305 -6.9129 7.4716 2.3359 7.1352 -0.37468 2.1198 -3.9588 0.69427 10.125 -9.137 11.007 -3.3093 0.055403 -1.4458 10.776 -2.1462 -4.8181 0.50594 1.0992 8.5469 -0.019562 1.6051 -0.28179 -1.7491 -2.8112 9.3056 -0.4284 4.1597 0.64465 -7.0088 -12.406 -2.0911 8.5152 -3.2101 -1.1627 
__label__AskThe_Donald -3.8543 5.9363 -1.222 -0.033167 -0.71518 1.3579 -1.4667 -3.7653 5.6586 7.4053 2.183 -0.42898 -1.3528 2.4789 1.9001 -0.80095 -0.062519 -1.1543 -5.2274 1.295 0.10371 3.3239 0.14773 -0.75459 -1.1542 -3.9036 0.11699 0.083044 -0.13024 1.8134 0.44475 -1.8871 -1.9676 3.0822 1.836 2.9961 1.8231 0.23419 -1.9936 1.9147 -1.8204 -2.7232 -4.3829 4.0165 6.5103 1.925 0.16531 -5.2616 0.16864 -2.757 0.66269 -5.4625 1.7253 3.1995 1.763 -1.0619 -3.6091 0.062638 -1.6798 -2.4917 6.0492 -4.8475 1.7627 -5.731 9.6516 7.7151 -1.5438 -6.9842 -6.2266 0.11067 -0.61419 -0.73919 -2.6244 -0.64624 -1.6554 2.9972 4.6475 -1.4702 -3.982 2.0875 0.86015 -1.9163 -4.9691 5.2395 5.4179 -1.8548 -1.2066 3.6698 2.1737 9.0418 0.4213 -6.698 -2.0749 3.2659 -4.4331 1.3819 -1.724 -2.3784 -3.8183 2.668 
__label__hillaryclinton 5.4809 -6.0012 -0.37281 -0.70075 1.882 2.4337 0.57172 1.8039 0.059538 0.65806 1.6243 -0.19246 7.4229 3.1512 -3.2385 -0.75898 -7.0892 4.3984 6.6647 -3.0371 -3.3013 2.5329 2.5708 -7.2019 -6.1582 -1.9356 0.30129 -3.0032 -1.9129 5.7259 6.3879 0.8552 3.6191 6.9229 -0.10618 -0.2045 -6.0288 5.218 0.70298 -2.0124 6.2126 5.5964 6.0762 2.0822 7.7975 -1.9277 -2.6256 2.7882 5.3044 0.18194 -1.4974 -1.2892 2.8957 -1.7111 0.1704 -3.061 2.4621 2.8484 -4.771 1.8252 2.6949 -4.4825 -0.75293 -1.8015 -3.0816 2.5562 0.24589 -4.1806 -7.7962 -6.9965 -3.0685 -4.7869 0.43425 -7.0091 1.7864 1.289 -2.0105 0.97817 4.5055 -2.73 -0.096866 3.1261 -8.9876 -6.6666 5.5597 3.5971 -0.37489 1.1611 -3.2617 -1.9227 -3.7533 1.6727 -0.76582 -7.0697 -6.791 0.76663 -6.2553 -2.2115 4.9036 4.0762 
__label__Music -0.97362 2.9467 8.3989 7.2996 -5.3938 -1.689 4.3048 6.407 -8.9858 -6.1455 2.7904 4.4468 3.3037 3.2975 -2.5976 5.2421 7.9666 -6.1035 3.591 -0.73724 0.43199 3.5896 9.6372 0.98839 5.7361 -2.9938 2.8628 -3.62 -6.4569 -1.9839 -4.8191 1.1086 5.9731 -2.2995 2.3971 1.2784 -4.5851 -7.3321 -5.5493 -0.099445 11.238 4.6022 8.3157 -4.405 -4.1005 -9.5232 -9.6966 -1.0262 1.0295 -0.75135 -0.86793 -1.5648 -2.5918 5.3332 -7.7839 4.1389 -4.3392 -10.338 -2.0975 1.2324 -7.6436 3.6052 0.72297 7.8527 4.4865 -4.0906 -6.8471 -1.3869 2.4938 -1.4179 -6.0665 -1.6552 -2.0721 8.9051 7.3292 0.49074 -1.7918 5.4074 -6.1812 -3.9085 -9.1724 -5.1789 4.3768 -4.0121 2.2157 -11.719 2.9775 -7.2329 -6.1147 -1.1159 5.8587 10.728 1.398 2.3966 -4.1727 0.57144 -0.89285 -7.4243 1.1188 -1.5173 
__label__Judaism -10.499 8.3162 -9.14 0.77 13.141 3.1946 5.1083 0.17275 10.417 -3.48 -1.2735 2.4013 -5.7561 -8.1266 1.914 -7.2203 -6.0805 -6.5855 1.9874 7.2349 8.0015 -3.4614 -1.7313 2.1846 -2.0399 8.3874 -0.10178 -4.0212 -3.2385 0.085699 -4.8879 -3.6007 -1.113 2.8928 -3.2396 -4.9164 -0.79435 -9.9202 6.7145 7.8823 -7.4814 -12.57 -0.43887 0.51266 1.279 -4.2314 -2.3178 9.3246 9.7469 4.9402 5.5702 -3.2615 8.3782 -2.655 7.9344 2.0105 0.16846 3.2956 -5.166 -3.2446 -1.5786 4.6257 0.27814 -3.0836 -4.3672 -1.3244 -0.67929 -5.4497 -6.9697 2.3676 -0.30905 1.6379 5.4485 8.8654 3.1322 -2.6986 4.5731 14.801 8.456 0.81646 -6.3488 9.2692 6.8469 -7.7582 -0.51264 -3.1964 0.93716 -1.3299 -3.7172 -0.89497 -1.672 -1.7623 -0.65748 -1.6528 -3.292 -4.5758 -2.9897 -7.1801 4.0714 -7.9936 
__label__MGTOW -4.1462 -0.57541 4.9038 5.285 1.4864 0.046523 6.1599 -1.9831 -3.1582 -3.1654 -5.1722 -0.27753 -8.9136 -2.9381 -5.3826 7.8936 -3.6098 6.7074 8.3495 2.8048 -4.2322 0.1684 -2.7577 -3.1494 1.3134 -3.7469 3.7248 5.783 12.435 1.9477 2.3888 -0.15018 -5.6696 -15.852 -5.5218 -0.83125 2.3509 1.2547 -3.0712 -9.577 2.6354 2.0226 -0.28203 6.7074 -3.9461 -4.7681 1.7787 -4.3173 -5.7546 -6.6187 -1.4972 3.3037 -0.66858 -3.7149 0.77102 -2.0654 0.25131 1.3738 0.14177 5.9265 -3.2925 -10.381 -2.0935 0.89684 9.1878 1.9189 4.5427 -1.4944 5.4731 8.3828 -3.9286 -2.0773 4.2819 1.4551 -1.3984 1.7309 1.2709 -1.2118 4.5357 2.1955 -1.0484 -7.697 3.8427 3.955 -5.8554 7.5168 5.9142 -2.695 -0.86083 -2.7948 -4.3833 0.78884 7.2917 -2.6636 -0.37934 -6.2422 -2.4235 2.786 -4.0725 -0.2588 
__label__KotakuInAction 1.9142 -4.3998 -5.2936 0.065795 -3.3987 2.3113 -7.3203 -11.371 7.0544 1.6082 -0.72559 -0.87048 -2.5064 -1.6471 1.0693 3.9769 1.9921 6.7098 7.5899 1.2056 2.2168 0.16469 -7.2904 1.6308 1.4953 -2.0096 -8.5817 0.84064 4.7163 -8.9682 -0.66732 3.074 -4.785 0.74407 0.18932 0.526 1.7194 2.2314 -7.6596 2.4919 9.2165 2.7373 4.8229 4.1581 -3.4462 -2.8634 2.9721 -3.7688 -7.3378 -1.0213 5.9383 0.20515 -3.4116 -3.1033 -6.6691 -0.95683 0.36071 0.40579 7.7547 5.4564 -4.087 9.68 3.4696 5.9211 -8.7762 2.088 -7.2178 2.4888 -7.0604 0.47764 5.6014 4.9968 -3.0002 -0.0097709 -7.8604 5.0453 3.9006 4.9873 -0.019311 6.2837 1.9833 -5.7556 -6.1138 8.9703 -3.3745 -8.7652 0.35854 7.3554 -0.26919 -2.8061 0.6799 -8.7479 2.765 1.3478 -1.6749 -4.9981 -4.5645 -0.68848 5.5727 -1.5406 
__label__esist 5.1266 -0.49478 1.5166 0.97031 1.1539 0.64998 -7.0952 -1.4344 -0.91174 4.2872 1.7675 -5.0101 4.7416 7.7413 -1.3343 -3.3386 1.9514 5.2155 0.95646 -0.6914 -0.5427 -0.7163 1.9109 1.9067 -3.2573 -4.9176 -0.68877 -3.869 -1.8815 7.3904 -0.53613 -0.39906 -0.22926 5.6593 -1.8841 1.6367 3.811 -3.4274 1.7634 -0.82479 -0.4669 1.2576 1.4577 3.2562 6.2339 2.0879 2.2712 1.3011 0.90999 2.0988 -1.0416 -0.091755 -0.94349 2.9743 0.11025 -1.7826 3.4211 2.1114 -4.6737 0.20128 -3.317 -2.3769 7.267 3.1357 1.9553 5.7893 6.4635 -3.1864 -3.9431 -4.1313 3.9539 -3.0654 3.7811 -0.10726 0.83275 -2.7729 -8.619 -4.4476 0.36829 -1.8977 2.6015 0.69123 -4.4743 0.076814 0.63107 3.7123 -0.88062 0.23339 -2.4462 0.16335 -0.48718 -0.2154 2.939 0.25577 2.0177 1.4603 -0.056526 -1.8674 2.2479 1.1579 
__label__EnoughTrumpSpam 4.3927 -3.8869 -2.8408 1.9409 0.56416 1.6272 -5.5462 -4.4528 1.6213 5.1465 2.0377 -1.8282 4.6873 4.2906 3.6958 -4.8562 -1.543 7.2186 7.1 -7.1613 0.6074 -1.3663 8.1597 0.91574 -4.7221 -2.5778 -8.1343 -2.8421 -1.8122 7.1866 2.1923 -2.241 -3.9323 4.2153 1.5536 2.949 5.3291 -0.17975 2.1469 -2.0177 3.6039 4.9008 1.4115 2.4665 5.2778 1.3878 0.72246 1.7584 -1.8291 -0.945 -1.2778 2.3592 -2.6857 1.79 1.5598 -6.0132 3.9842 -2.0654 -5.0828 0.12702 -1.4497 -5.6888 5.1604 -0.67642 -0.035413 5.2389 1.7565 -0.54161 -5.4002 -2.5431 2.5173 -5.2674 7.0501 -1.3057 -3.4003 -5.4606 -6.4204 -3.4746 -0.98047 -0.47337 1.9471 -1.0913 -1.5507 -1.0867 1.2325 2.0195 -1.4864 -0.74959 -2.8287 1.1223 -6.252 -1.4409 -1.0686 2.6634 0.44738 1.1555 -1.4361 -0.60313 2.9332 0.83271 
__label__books -3.5117 3.8692 -4.5098 1.7718 -4.4925 -1.7895 1.265 -3.8292 -1.8433 -2.0336 -5.5449 -4.2081 -0.53662 -2.904 5.8493 -1.1614 0.32127 -5.1569 -5.6532 4.2705 3.9307 4.2991 -3.4343 1.7179 3.8027 -1.9783 -2.4004 0.58963 2.5908 -1.1744 -3.4389 3.2176 6.6336 -6.3983 4.1474 -3.216 6.024 -0.53464 -7.2771 10.895 0.84372 2.9548 7.7982 -0.19237 5.5527 3.2868 -0.83364 5.302 4.7049 -3.0857 -0.8812 -1.5032 -7.3258 4.1922 0.11157 0.22358 -0.13787 5.7536 3.448 1.6613 -9.8471 5.246 -2.0285 -1.6073 -10.46 -0.69851 -7.7749 -1.2603 5.1954 -8.0098 -11.013 7.8712 -3.8666 2.3611 1.4737 -6.058 0.48758 3.3087 1.59 -4.9571 11.52 7.8713 7.5762 6.4175 6.2603 3.9412 11.806 -7.8931 -12.664 -10.369 1.6283 8.7023 7.0267 -7.2041 -5.4625 -5.2462 8.2097 -1.5402 4.895 -2.2463 
__label__lgbt -2.4138 -1.5776 4.5563 6.5363 -0.15511 8.1649 -1.7141 -4.5466 4.914 0.57721 -0.67541 3.9853 -5.7091 -0.58646 -3.0659 1.0653 0.41154 -1.4892 -2.02 -2.334 0.44008 -0.069804 2.3436 -3.1233 -6.0631 2.5082 7.5937 -4.0836 -7.0181 3.4064 7.9647 3.7254 7.9166 2.8185 2.4386 -0.74796 -3.1854 -0.4669 7.2292 1.1457 -2.6322 5.3117 0.92177 -0.24937 -0.53607 -0.233 2.743 4.2558 0.61118 4.0295 -7.0277 1.0037 4.6316 1.2825 -7.5632 -0.090898 -5.2145 -5.2383 2.9437 0.80371 6.1905 0.12197 5.917 1.9348 -7.5991 2.3076 -4.028 1.0019 2.6092 4.0623 0.83571 3.0371 2.221 5.6317 -3.1745 -6.3225 -1.6161 2.4564 7.6409 -8.1803 2.0995 7.8215 0.52055 -4.5717 -3.3235 1.3611 0.8081 4.9962 3.2085 7.1723 -0.081622 1.9963 -4.1737 -0.57607 0.40174 1.0468 -6.0747 -4.2069 4.0252 -1.3092 
__label__gaming -5.4222 -4.6779 -6.0397 -3.2339 3.3198 -8.2876 -0.92794 -5.4001 -2.0213 3.7204 -3.2668 -2.7933 4.6813 3.2081 0.58859 6.1208 7.6879 7.8705 -2.8485 -2.9454 -5.5135 1.2087 -0.11787 3.0703 -1.7995 -0.24389 1.1604 0.48367 0.56153 -9.3504 3.4754 8.3617 0.16772 3.4487 1.0002 -0.70782 11.609 -1.8823 -3.6394 -4.2838 11.612 6.7816 2.5513 0.54758 -6.2674 2.2737 0.28914 -4.8314 -6.0817 2.2968 4.7871 3.4708 -0.27348 -2.7084 -0.0083492 -4.9801 -3.3026 -1.4699 7.3365 0.88972 -5.7434 9.075 -0.93114 1.0305 -9.5387 -6.8596 -0.21847 -1.409 8.6419 12.009 -3.6271 0.050366 -0.26777 8.4866 6.7893 6.3919 1.4391 8.0128 -4.0524 -4.8973 -7.7402 4.0001 -3.8562 0.23183 0.51147 -2.335 0.13639 7.7252 1.1234 -9.0655 5.9625 -7.8499 6.1226 -0.90967 1.7715 -8.4586 5.9605 3.1422 -2.5125 4.9412 
__label__news 5.0359 2.3442 -1.9478 -3.0674 4.4087 -3.921 -0.037571 7.0577 5.0195 10.869 -5.6168 -1.0903 -0.21311 0.70608 -3.1632 -5.621 7.3455 -1.0115 -2.0948 1.9085 -1.4308 -1.4426 0.13885 2.2604 1.1776 0.55374 2.905 -3.5107 -1.8522 -1.4703 -8.6765 3.3081 -2.9943 0.0085928 -5.6104 -1.1567 3.6747 2.7576 9.3379 -1.2497 -4.2105 -1.2653 -0.79577 3.0651 5.456 -2.101 -2.0775 2.8472 -7.0606 4.596 -6.9656 2.8974 -11.007 4.9541 -3.3475 -2.1739 2.4032 0.37765 -3.2358 -1.5343 -0.60139 1.5482 6.6743 7.1457 -1.7629 0.15077 -6.066 3.4967 3.6846 2.1038 3.3335 -6.7562 -2.3589 -6.3934 -8.271 2.1143 1.7378 -1.8756 -1.4259 2.5444 1.7776 -8.149 9.9405 -2.4344 -4.8617 2.0942 4.4773 0.69864 5.3902 2.3707 1.9627 1.5706 6.0163 -1.2912 6.3 3.802 -3.8583 5.6372 -6.0085 0.92008 
__label__food 0.50696 7.0227 -4.5199 0.72922 10.108 -1.3657 4.8032 2.2325 1.7676 -1.3425 -3.8137 1.8871 4.3001 -5.4115 4.1451 -2.2825 2.4579 1.7794 -0.95425 -0.9205 -3.0815 1.4234 5.3383 -3.9835 0.4352 7.1999 3.0391 7.2194 -8.5933 -5.1658 3.6445 -5.2661 3.9196 -2.4148 -1.4863 -4.37 -3.0584 0.1431 1.2661 0.063711 1.1998 2.7757 -1.4492 3.2241 -2.6766 4.5964 -5.2337 -3.5569 2.7223 8.5561 -2.2764 14.525 5.9151 -0.9308 11.823 3.8247 -1.7993 -1.521 -8.0622 -9.8661 -4.8879 -0.61223 -1.9618 -3.9899 2.9817 -11.777 3.2242 1.8843 10.514 1.4454 -5.1382 7.9454 0.20023 3.1367 7.0011 -2.5201 -6.8024 -3.9373 6.0096 -0.50197 -1.6015 10.169 4.2159 -0.93976 1.5957 -10.25 -4.5268 -3.9713 4.266 -6.7408 1.7884 -0.5119 -7.3256 -2.5993 -0.85286 8.6909 11.154 2.3607 6.456 -3.0492 
__label__movies -1.4648 -2.7422 -0.48855 -9.569 -12.545 3.3042 -9.7771 -4.2566 -2.9296 -7.9687 4.5033 -0.63477 -4.2468 -3.08 7.7416 1.9305 -0.46291 -6.9397 3.8978 -1.54 0.47379 7.0352 -2.9566 6.6944 -3.2511 -6.2063 -3.3012 2.2643 -2.7916 -5.7342 -3.8384 -0.4918 4.3803 4.0852 -0.75821 1.3532 -1.7853 1.04 -4.7521 -5.8986 5.2314 7.8837 12.049 0.31855 -4.9119 6.5203 -9.2574 -2.2733 -3.1607 5.9001 -2.326 10.192 -5.7546 6.3211 5.8414 2.0132 3.5892 -2.7271 8.5524 2.765 -6.0933 -1.7219 4.8613 -3.6756 -0.90892 -0.82397 -1.2896 6.0751 1.5692 -4.2318 -4.7517 -3.047 -5.2349 -6.6225 -2.2489 3.132 8.2031 12.314 -4.8651 -6.1913 1.672 2.181 13.806 -8.9593 -2.8741 -4.1862 10.069 -0.70177 -2.1313 0.4165 1.86 2.4194 3.7905 -6.9201 -3.8502 2.0896 6.3378 4.3339 5.2483 -0.35115 
__label__politics 11.113 -5.6711 -0.53646 -0.85141 5.756 -0.026365 -2.4457 -0.91335 4.271 10.413 0.71274 2.9139 5.2662 4.2049 0.59052 -3.3317 0.47714 9.2395 2.2333 -4.3833 0.26013 -1.4026 2.0546 5.4518 -8.2112 -3.4573 -4.5405 -3.8495 -1.586 5.8376 -4.2342 0.8341 1.172 2.1473 -1.2547 1.9698 5.4585 -1.1836 4.6833 -0.61627 1.5401 3.6898 4.558 1.0375 8.7536 1.5959 0.035817 2.1603 0.46697 0.66631 -1.6398 3.0218 -6.5375 4.9926 -1.0409 -1.9262 4.3184 -2.6605 -5.0955 0.803 -2.8131 0.061259 4.9068 0.27742 6.1077 1.0427 5.8486 0.54022 -3.7501 -5.0827 2.749 -8.8686 9.1039 -3.3275 -6.9982 -2.3665 -3.6732 -4.0136 0.52535 -2.4594 6.6179 -4.8464 0.46943 -0.70043 -2.4755 1.6123 4.9943 -4.107 -2.679 -0.39721 -3.4238 -0.72875 4.5704 1.6324 3.1301 4.8445 0.021759 2.0361 1.3748 -2.6679 
__label__soccer -4.201 -1.3619 -7.9164 -6.7139 -5.683 2.3031 10.807 0.80058 -0.058288 4.4045 7.6005 -1.7854 8.0665 9.1655 0.88891 2.893 0.41986 12.096 9.4266 -15.382 -2.1803 -6.2675 -1.3794 2.4427 6.5271 1.3772 -11.453 11.002 5.1819 -0.51531 -1.2011 -0.72473 -4.1041 4.2955 -0.58548 0.99035 -11.36 8.3353 4.032 0.8098 -4.8205 -2.3313 -0.34183 -9.2749 0.21839 8.1068 -4.6408 -1.811 7.5021 -9.5954 4.1001 3.2698 -9.7155 5.1487 -6.9633 4.2825 2.3474 -1.8134 3.6225 0.64422 2.1462 -2.3425 3.7962 4.0824 5.5103 -8.1258 -0.26175 2.9587 3.9594 -5.1907 -12.554 0.36253 -0.15167 5.9046 0.028342 -2.3628 4.2651 2.8463 -1.6524 -13.252 -8.1799 4.5577 8.4656 0.41212 -2.772 -1.4978 -0.81829 -1.6974 -2.7469 -2.5139 4.0446 -0.87969 1.502 2.5371 0.18554 1.6499 -2.2209 6.6694 -3.1977 1.8698 
__label__Fitness 2.9191 0.55133 -7.9644 1.1725 -1.4558 1.663 1.2689 3.4689 1.0962 -5.0281 3.9578 4.5202 -1.8894 -0.68667 -0.42078 -0.17356 7.38 -0.27337 -5.2236 -3.818 -0.19572 5.5158 4.2746 -5.9855 5.3454 -1.8651 10.945 -1.0353 -2.6443 9.1128 -1.2072 0.67859 -2.6616 -6.6644 3.5181 -2.195 -3.7801 -6.2301 -6.9179 -7.0561 -9.1643 -9.1242 -5.1252 -6.2743 -4.2114 6.0422 3.4665 2.4421 -2.4955 2.6002 4.471 0.469 6.3797 -1.8541 -1.047 6.2013 -1.1147 -3.2968 0.11403 -2.3643 -0.012134 -0.82609 -10.117 -3.3214 4.8264 -6.0016 13.411 -6.2264 6.6739 -2.4252 -0.195 5.3499 1.5415 1.876 -2.2974 -4.4135 -3.7824 -1.3173 -3.0803 -1.6899 -2.7284 1.8042 -2.62 0.42933 5.9167 -4.9036 -3.704 0.22031 -7.5641 -3.8916 10.434 2.3027 4.7286 -5.6933 -0.22673 -5.1286 13.806 11.902 -8.2357 -3.1822 
__label__TwoXChromosomes 7.6236 -0.36458 3.7496 1.2275 5.7601 5.9875 -4.9018 1.273 -4.1972 -1.3671 -1.08 -0.91229 -8.419 -3.4703 -6.5609 5.1415 -0.37897 0.37711 -3.7464 1.3952 0.99718 7.1045 5.1453 -12.549 -6.8855 -1.9782 15.337 0.38619 -4.0303 8.3693 1.3975 5.8626 1.554 -3.8156 -5.4381 -0.97342 -3.4236 11.475 8.9241 1.4721 -4.234 -0.81438 0.22656 0.35887 0.39246 -4.0202 1.8189 2.489 -0.59839 2.942 -2.8698 4.318 -3.2931 1.9252 -1.6146 -4.5205 -6.5493 0.030826 4.534 1.3169 4.8576 -3.3573 0.75727 -0.91723 3.6219 -2.445 0.65649 0.70057 2.7358 1.381 4.3171 3.3771 6.641 3.297 -0.67318 0.99404 -0.99478 -1.3536 5.1753 -1.2596 1.1301 -0.64744 5.15 0.49911 -1.0276 -0.31335 2.8325 2.5861 -0.64092 -3.9559 5.3669 -3.662 5.6865 -11.801 3.232 -3.2985 -2.1984 0.36774 -3.8111 -6.8587 
__label__EarthPorn -4.0743 0.62404 -0.74236 -1.9855 -2.0588 -6.7153 0.4324 3.7191 10.37 -4.1093 -10.071 -1.2404 9.8575 6.0395 -9.0851 -3.5037 -2.4056 -2.8565 2.1918 6.7164 -4.3198 -3.0821 3.525 5.9455 -1.5485 3.3635 -0.78097 1.0502 0.22986 -1.3858 6.3674 1.2956 17.106 0.39083 12.229 -4.8969 -4.0639 -3.5878 2.5208 7.1005 5.3909 -0.20381 -2.0652 -4.23 -6.2826 2.5929 0.73449 0.44325 -0.77526 6.1193 -2.3785 -2.796 -0.63047 -5.3105 1.5623 -5.8469 -5.5504 -3.0655 0.47737 -0.90799 -2.2193 -2.0551 0.3569 1.8235 -3.3992 -4.5934 -2.4395 -5.0109 10.966 2.644 -4.4066 -5.2397 2.9105 -3.1625 6.5879 3.8631 4.7522 0.30597 10.152 -5.0755 -5.3874 8.6146 8.1719 -10.981 4.8049 -1.3448 -2.8867 -3.0843 4.5479 0.79443 1.7091 8.1668 -1.0005 -0.051792 -4.0313 2.648 10.163 10.452 -8.2363 -4.8104 
__label__BlackPeopleTwitter 3.7873 -6.7808 3.2368 -8.4794 4.2682 6.6582 4.6117 5.0298 -5.7041 -2.6117 0.91811 2.0779 1.7984 3.571 -4.9368 -1.3369 -1.0428 3.9848 -7.9384 -7.769 -4.3814 -5.5189 6.1725 -5.486 1.3498 -1.1526 -3.4532 4.5751 -3.0688 5.9213 5.0722 -3.5725 -1.9908 -5.0628 -4.3314 2.077 3.2732 -0.061911 -3.0015 -5.9816 -2.4745 1.3984 0.95456 -2.5282 5.8693 -2.7074 -0.81133 -6.3299 -3.5872 -0.63235 -10.95 1.2986 10.165 -1.5268 6.6959 -0.38149 -4.7012 -0.20978 3.8013 2.0842 -8.4434 6.1315 0.6757 7.0365 -5.9761 -1.3873 -2.1387 13.405 2.3924 2.5197 0.48587 -5.2538 -7.0451 -6.0567 2.4539 -4.7974 1.0215 1.4043 -5.1593 0.5558 -5.9344 -0.53602 3.226 -2.5782 2.1956 -1.1339 -7.5767 -7.1036 3.7328 7.538 -2.8101 -0.041042 3.7568 3.9689 9.1561 -5.2086 7.2321 -0.56989 -1.3129 -5.5388 
__label__altright -2.4687 -1.6249 -3.5664 3.8167 -1.6756 4.5164 -0.037637 -0.4007 1.9617 -1.8704 1.6615 -1.4907 2.9632 -3.0869 -1.7229 1.3304 -3.4666 -2.0448 -0.018421 4.0934 -0.17464 7.2608 1.3047 1.4334 2.1098 -1.1838 -3.6855 -5.0095 2.7592 0.36212 -1.9655 -8.2675 -5.7835 -4.6608 -8.9245 -3.4371 -2.7139 -8.6738 -5.0908 0.7155 -0.4937 -3.3598 -5.0766 0.52371 -3.6275 -1.3556 4.6585 4.4081 2.2931 -6.5118 6.064 -3.2658 4.8454 -4.0096 -2.7835 3.7006 4.8852 4.7157 0.0016311 -1.4184 4.3186 -2.1068 -2.3686 -3.7183 3.1259 3.2726 -1.2115 -2.5927 4.3739 5.1895 -4.7939 0.47831 -5.8771 -0.10949 0.74364 -5.72 5.3801 5.7871 0.62815 4.2532 0.16673 -2.7411 -1.2054 -2.1151 -6.7099 -1.9373 -3.6191 -1.0196 -2.1005 0.8277 -9.4371 -5.3146 -9.0903 7.5961 -3.9929 6.9241 -3.802 -6.0337 -0.86188 1.4004 
__label__WikiLeaks -8.2915 11.785 -2.5127 0.30767 -1.501 0.021226 -2.8489 4.5114 -3.5018 -2.0045 0.17703 -6.6631 6.4981 6.4693 6.703 -2.0079 3.1268 -0.85934 -0.66001 -1.0308 -0.42367 1.3411 -4.787 -1.1053 -0.020328 2.1185 1.3737 -0.20916 0.44525 0.04648 1.6849 -3.112 0.13918 0.99416 4.5648 7.8633 6.5917 -5.0661 -0.027235 3.1438 2.9165 -3.3566 9.274 -3.8896 1.9821 2.7267 -0.045039 -0.84907 3.7659 -0.60419 4.3905 -0.36948 -4.604 6.1813 -0.93157 -2.2113 -3.0058 1.2681 -1.7244 -0.37497 4.0843 1.8846 0.64617 6.5959 0.41494 -0.36082 4.243 -1.8441 -5.8679 -5.5781 -2.3256 -9.1803 -4.0169 7.5566 -7.8767 5.6211 0.79339 -1.5495 2.869 7.442 1.9604 -1.8917 -9.7797 -2.731 4.7506 5.0492 -0.0048782 3.9216 3.3229 1.1834 2.2218 -2.4173 2.5296 3.5117 -4.8552 -7.7633 0.19442 -2.282 5.9506 1.4756 
__label__Blackfellas 2.5056 2.7788 3.7361 -6.4532 3.5389 4.4668 -1.622 3.2491 -2.3176 -1.5358 -4.2155 1.243 3.3044 -1.0516 -1.605 -1.0665 -1.2285 1.1283 -7.5587 -2.9448 3.6271 -0.91371 1.5084 -3.1781 -3.803 -8.72 -0.45837 -3.4996 -1.8763 -7.4021 4.5853 -4.8068 1.3132 -5.6506 -1.585 0.88368 -3.2169 -3.486 -7.3965 -5.6019 0.016375 4.6402 0.77143 -1.3297 5.5112 -5.0994 -2.9954 -3.8655 -1.1705 -2.9619 -7.0721 -3.813 13.198 -2.6819 -5.7106 0.81907 -0.14462 2.395 5.2265 2.2102 3.4057 5.9566 5.3111 10.479 -2.5946 3.9913 2.8693 4.4781 0.7627 0.17357 0.2925 7.6911 -3.479 -3.3892 5.3633 -4.369 4.6852 8.734 -3.1293 -2.1096 -0.6679 -2.9554 2.2418 -4.7977 4.5715 -5.633 -5.3944 -5.1171 -4.3746 4.386 -6.546 3.5107 7.2434 0.20175 3.2138 2.1164 -2.0019 -5.9056 -3.72 0.56691 
__label__DebateAltRight -2.7207 -3.0971 -1.95 -0.19511 -6.7227 6.251 -2.0115 0.91918 0.17732 0.24015 0.93545 -3.7301 0.23255 1.5477 -4.0654 -2.2546 -4.5506 -5.5317 0.40252 1.7626 0.73794 6.852 -2.5569 4.273 4.247 -0.76075 -3.858 -3.9766 -0.39151 -3.5179 -1.3881 -9.6282 -3.8103 -1.2451 -3.1195 -1.5168 -1.3651 -10.93 -2.1852 -1.831 -6.8252 -5.7676 -8.1367 -1.9895 -4.0376 -0.069586 4.9225 3.9542 2.678 -4.7327 6.9028 -3.3786 6.9368 -4.9689 -0.41327 7.395 1.5251 4.0152 0.88794 -3.4307 3.3418 -0.88739 -6.8894 -2.7975 3.4235 -0.18944 4.2411 -3.1745 2.4939 4.558 -0.99681 4.729 -3.8039 0.39522 1.846 -1.4873 4.2499 -0.95212 1.2777 4.2666 6.4892 -1.499 1.7942 2.6376 -2.8062 5.4301 -1.0265 -0.91348 0.49014 0.64019 -1.0134 -2.2983 -5.4991 6.8031 -1.5951 8.8891 -5.6922 -9.9029 -0.20074 -2.5889 
__label__AnimalsBeingJerks 8.0364 2.5864 11.386 -3.1842 -2.4255 -10.882 7.2528 2.7166 -3.3228 -7.7222 0.25014 -8.2418 -4.15 1.3662 4.0988 -0.55596 -6.2286 -4.4544 -0.97548 -3.3885 -3.8004 7.4063 6.0392 -5.5763 0.46144 3.4412 1.6241 -4.7963 4.4296 -2.6158 -0.40891 0.33694 -3.6065 -2.7902 6.022 -0.49693 0.62238 -4.4427 4.9257 -7.6753 -1.2864 -4.2343 -5.7006 -2.7739 -6.2274 6.7697 -2.7777 2.6742 -6.6876 5.2714 4.9676 7.3108 -7.9594 1.1316 5.7238 -4.0866 -0.075883 0.85978 -6.4785 -8.0735 -9.5379 4.0433 2.2153 2.3828 -3.6095 -3.131 -1.2227 1.0187 -0.44437 1.3722 0.84017 -0.18019 -2.0561 -2.3672 5.056 -3.088 -4.887 1.5831 5.3868 -2.8922 -7.3451 5.0042 1.1179 -3.3418 -1.7574 -1.3066 -4.7637 3.4157 4.2293 -3.3883 5.3492 2.2257 -1.6843 -0.067983 3.2255 -7.8419 3.9273 1.676 -7.3655 -2.2474 
__label__sjwhate -5.3098 -1.1523 2.2364 0.43267 -4.9457 0.85979 -4.6035 -1.6644 -0.75016 0.80066 -0.15227 0.71648 -4.1032 -1.9624 -2.6336 -0.54287 -0.25254 1.2519 1.9541 3.1359 -1.5892 -0.89719 -3.337 -1.9499 2.4415 -3.9147 -0.91262 -0.41829 4.4912 -1.8678 -0.97641 -0.15655 -2.8103 -1.2171 -3.967 1.3277 0.066103 0.37359 4.1707 -0.6055 -2.1865 -0.79586 -3.1911 6.399 -1.3709 -1.8293 0.47728 -1.7808 -2.8078 -1.8366 2.7014 0.41545 3.8953 -5.8879 -2.2198 -0.93854 1.6995 1.6253 0.32578 -0.5329 0.39205 -1.0573 0.31119 3.6419 -4.3787 4.67 -5.8323 -0.023845 1.0501 0.76355 4.7253 3.032 -1.7541 -2.6925 -0.55584 0.80564 0.093374 0.051563 -3.9961 1.7075 1.6528 -4.3976 -1.4735 3.7678 -3.9125 0.22176 -1.0555 1.2709 6.5318 1.7241 -4.3768 -1.7501 -5.7075 5.2226 1.7982 3.0741 3.668 0.99671 2.9667 2.4933 
__label__NeutralPolitics 3.4943 6.5214 -5.2754 -1.8536 1.2757 -5.3853 -7.1468 1.3189 0.48038 8.4051 -1.6603 -5.598 -3.3698 2.4811 6.6583 -0.33813 -0.35387 -4.9799 -4.0404 11.05 1.5491 -2.0005 -13.082 4.9987 -6.2335 4.3671 -0.44976 0.64358 -6.3906 -0.76017 0.79653 2.2762 4.3138 7.9524 3.8882 0.9119 -0.99909 0.9267 -2.1732 7.6289 -1.9963 -3.5207 -4.019 -0.038775 9.4512 -0.49259 5.5549 -4.198 2.0924 2.4527 -3.3584 -6.4834 -0.48305 3.216 2.722 3.8486 -2.6546 -1.9269 -5.6088 -2.6746 2.8366 -3.6394 -2.7967 -6.2903 5.1657 -0.060657 3.081 -2.2277 -3.8762 -2.047 -3.0063 -3.311 -0.32698 1.6848 -1.3469 2.2777 -0.15915 -4.3969 0.032922 1.7204 2.7941 2.7719 -2.3053 2.6088 1.8993 -3.2242 0.82783 0.3016 -5.0267 -0.65116 5.2817 -1.291 4.7167 1.0443 -1.6573 -2.2102 -4.1452 -2.0911 -1.2001 0.6395 
__label__HillaryForPrison -5.8054 5.2422 0.68164 -4.0216 -1.4224 -4.1027 3.0312 5.8712 -5.9193 -0.55183 -1.8701 -5.3327 3.5494 2.2923 2.8193 2.5752 -0.82499 2.7032 2.3332 -1.0639 -2.4901 0.23312 0.72257 -5.0257 1.0197 -3.2156 1.2554 -0.59692 2.4312 3.449 -1.6295 -1.7202 -1.0949 2.1568 1.0134 4.3619 1.4983 4.7923 3.0151 0.76098 3.753 0.71044 8.4991 0.57133 4.3633 3.1771 -2.2902 -3.9916 3.365 -1.3504 1.8354 -0.85831 -1.0917 1.6353 3.7132 -0.92532 0.22017 -1.5325 -3.6602 -0.95531 2.6398 -4.6215 -2.0048 0.64276 0.4516 2.5157 3.8721 -1.1782 -3.9878 -1.3097 -1.9159 -6.2895 0.019714 -1.614 0.61363 3.5386 -4.0597 -2.0441 1.7206 5.4287 -0.29053 -3.1145 -12.364 -2.2999 -2.1727 8.3152 -3.062 4.0742 2.0407 6.4068 -1.9721 -2.1057 -2.2208 0.90208 -1.6769 -4.2452 1.2531 -0.78574 4.0596 3.4762 
__label__AskFeminists 6.2895 -1.5643 0.72876 2.3935 -3.6116 4.0086 -4.8213 -0.521 -7.132 -3.9693 2.7242 -1.0855 -10.879 -4.279 -1.5673 6.0899 -3.4646 -6.7236 -0.52229 3.596 2.3694 2.5772 -8.5837 -0.96581 -4.7543 2.0053 6.7757 3.0271 2.2739 -4.5473 5.5426 0.97199 2.161 0.86701 5.413 1.3068 -2.2994 2.0635 1.4406 -1.6328 -9.1562 -4.7108 -1.2368 -1.4734 2.7499 -2.7008 3.9167 0.31436 0.5929 -2.5206 2.8739 -2.5709 -0.50001 -0.66001 3.176 -1.5013 -6.4225 0.69377 4.9308 2.8624 0.57726 -2.9069 -2.5699 -0.90292 -0.96924 -0.48257 3.4876 -1.1335 -1.3132 2.2038 4.7678 8.1687 0.34661 2.2383 -0.14887 4.0259 0.21666 0.21021 -0.18285 1.3609 -0.12178 -1.7728 0.98613 5.471 4.3767 2.7845 1.6205 0.017526 0.68244 -1.6311 3.2255 -2.5994 1.0665 -5.4619 0.62664 -1.8987 -2.3676 -9.6282 2.8776 -2.3943 
__label__Republican -1.4985 0.9999 0.33834 -5.2426 1.0504 -3.7096 0.71546 -1.555 1.1414 2.0507 1.5483 -1.9363 2.2762 1.2449 2.8558 -2.2775 0.943 3.1287 -1.5526 2.9824 0.010239 -0.681 -5.9373 3.6192 -6.0291 1.0346 0.72807 1.9264 -5.2943 -1.1009 0.67116 1.5678 1.0522 4.8506 -2.1258 -0.41513 -1.2113 0.04369 3.6125 3.668 -2.2975 -1.1133 -0.87029 5.6546 9.6295 -0.48981 0.47374 0.37871 1.8136 3.47 -2.4255 -2.0082 1.6811 3.1129 2.7844 0.4591 -1.0338 1.9511 -4.5847 -2.3207 1.2041 -4.3634 0.79961 -2.9933 8.5888 -0.2708 3.4488 -5.7426 -7.0635 -4.2771 0.39134 -2.0688 -0.26283 -0.49193 -2.7128 2.3814 -1.8455 -3.652 -1.5502 -0.43098 3.7839 -1.9836 -3.7599 5.4411 3.8953 -0.60005 0.26367 -0.21307 -2.0389 2.392 3.0741 -0.15589 2.1361 -0.042024 -3.1038 1.0309 -3.7547 -1.332 -3.3005 2.1192 
__label__ainbow -0.67094 -4.2208 4.6456 4.8956 -2.1039 6.2218 -1.6687 -4.3229 2.2386 -0.10463 0.82954 1.597 -3.5681 -1.1683 -1.3272 -0.027185 2.1175 -1.2086 -1.801 -0.72503 1.7479 -1.7664 2.2092 1.0133 -3.8632 2.6 3.5495 -3.4653 -5.6437 -0.16017 4.1965 3.1063 7.0787 3.8916 3.9521 -0.1276 -2.7747 1.469 6.639 0.75985 -1.7936 2.5582 2.1304 -2.175 0.60478 -0.20392 2.0714 4.5648 0.19366 2.6261 -3.5637 0.79937 3.7748 -1.1668 -5.9492 1.1726 -0.91706 -4.1256 2.4761 0.49974 5.2942 0.35272 4.3633 2.1014 -5.34 3.1197 -3.3255 0.21709 0.03311 2.5681 2.7237 1.4137 3.1958 5.2662 -5.2732 -3.9567 -2.3804 0.86545 6.3761 -6.2563 1.8295 3.472 -1.1854 -1.9535 -2.7133 4.4021 0.98438 4.0944 2.0009 6.4272 -1.1941 0.92466 -2.5047 -0.40667 2.2864 0.97991 -6.1657 -4.4964 4.9611 -0.73436 
__label__AgainstHateSubreddits 1.0603 1.5315 -1.9687 2.1546 -0.15678 2.392 -4.7607 -2.4019 -1.0303 -2.561 2.381 -3.9645 -0.56835 1.0841 -0.0073677 -3.1909 2.2219 -1.2475 1.3107 1.1504 5.669 -2.1987 1.1429 4.3505 3.3072 0.8961 -6.1884 0.7464 0.86423 0.26619 -0.69532 -2.8141 1.2732 4.5678 5.0074 2.9567 2.1183 3.3347 0.15952 0.88929 -0.99945 2.7383 -3.1705 -0.63926 -0.27114 3.831 0.87943 3.5734 0.14619 -1.7087 6.4918 -0.41503 2.6044 -4.9727 -3.8087 -0.84128 -0.22882 -1.3838 1.7332 -2.371 1.494 0.18703 2.2516 4.5091 -6.9982 5.8503 -1.0135 -2.6575 -0.93733 0.34968 6.5318 2.5263 3.187 3.4315 -0.6378 0.029618 -4.5342 -2.2231 0.87033 4.413 -1.2503 1.1319 0.075362 0.35293 0.77744 1.7345 -7.2971 4.3632 3.2298 3.3937 -6.2763 -2.8797 -2.7291 2.2891 2.5894 1.2264 -1.6615 -4.2104 4.4193 3.1924 
__label__blackladies 5.8387 0.84074 3.1737 -1.8382 5.2255 5.4885 1.0496 2.2238 -2.7957 -2.8928 -3.5534 3.5856 -0.99727 -4.2621 0.059849 -1.9404 -2.1105 -1.1502 -1.1909 -1.3412 0.68293 -1.057 4.9272 -9.8195 -3.2413 -4.2135 1.604 -0.51554 -0.01571 -7.8552 5.9613 -1.5333 3.6758 -1.8994 0.99297 -0.71398 -4.7006 3.0168 -2.458 -3.2987 2.711 2.8747 4.4675 1.5985 2.6993 -2.4685 -1.837 -2.0473 -0.13915 -0.046094 -7.6563 1.883 7.0358 -0.98786 -2.6188 -3.7796 -1.2349 2.5547 0.83056 -0.32151 0.85817 2.8898 2.0574 6.234 -2.8905 -0.43263 0.01047 3.1927 0.30266 -1.4193 0.0060495 5.8598 -1.2123 -4.4318 7.1051 -5.2444 2.4523 6.3595 1.5524 -2.2759 0.53654 3.3453 3.1663 -2.6406 5.5091 -5.1346 -1.9444 -2.3632 -1.0051 -0.40616 -6.1547 0.67037 2.7519 -4.3761 -1.5434 2.5699 -1.2123 -6.5441 0.5916 -3.153 
__label__democrats 4.2767 -5.9962 2.8112 -1.6869 -0.7364 -2.6024 0.32345 0.41296 -0.95766 -0.55002 1.4244 -3.2835 6.5035 0.99212 -1.2309 -0.21678 -0.23518 4.0785 -2.0315 -0.93755 -1.3507 0.17194 0.34229 -0.32248 -3.8036 0.7817 1.2268 -2.5075 -4.6594 2.2639 1.5577 3.3536 1.4369 4.0549 0.31813 -2.1065 -2.4281 2.2268 0.85239 0.47256 0.37062 1.4813 3.3624 -0.74004 7.3464 2.066 -1.8234 1.6036 4.0087 2.2745 1.2472 -2.9307 2.8051 0.18411 1.3973 1.9864 2.9034 1.0807 -2.674 -0.19901 2.596 -3.0034 -0.70774 -2.1702 3.9688 1.5274 5.0866 -1.8502 -5.2128 -7.6119 -0.27333 -4.5261 3.8811 -3.9632 0.16865 1.9585 -4.7028 -2.6948 1.4285 -2.8099 1.1923 -1.7612 -10.172 -2.9619 2.25 3.0457 -0.058563 -0.72808 -2.5043 0.43757 -2.6994 1.1276 -1.0519 1.0138 -1.8071 0.54366 -2.626 0.073168 1.4322 4.3926 
__label__PussyPass -2.6498 -0.50778 0.34342 0.23041 -1.0595 0.17687 0.33979 2.1926 -3.7337 -3.599 0.88248 -3.5636 -2.152 -2.2445 0.27693 -0.4335 -1.1536 -1.6606 1.0859 3.1445 -0.42472 -1.9061 -0.54055 2.2601 2.296 -0.96318 -4.1341 -1.1649 5.6055 -2.5587 -1.3737 -4.6332 -1.0563 -0.99794 -0.16445 0.25459 1.6637 0.94818 2.8024 1.602 -3.9962 -5.0153 -3.2349 -1.1548 -4.1569 -0.91149 1.6807 2.8444 0.85264 -3.9988 4.5102 -0.8119 3.7925 -3.6508 -1.0862 3.0637 1.0298 -0.89747 -0.37181 -0.75701 0.92212 0.014339 -3.0871 0.010787 -1.4508 1.4929 2.0568 -2.1495 1.3336 4.676 2.636 -2.2574 -2.4839 0.92973 2.0945 -1.8899 -0.71435 0.63675 -1.5002 3.7143 0.28309 -3.9976 -1.2073 -0.026035 -5.6433 2.8262 -2.5621 -0.68446 2.4854 2.8943 -5.6058 -2.0008 -3.99 4.7524 3.0899 4.4654 0.043056 -1.7999 -0.1981 1.3101 
__label__AntiPOZi -3.8504 -3.1124 5.8825 1.9921 -3.6371 0.80318 0.86684 -0.94724 -0.37925 -2.0326 0.2229 1.2381 -6.329 -5.4611 1.9916 0.010293 -0.27589 -0.87007 0.52465 1.6657 0.85224 -3.9643 4.2412 1.9348 4.6322 0.85903 -4.1791 1.0768 5.1948 -1.9264 -2.4241 -2.8288 -0.98507 -6.008 -3.9328 -1.0493 -0.69689 -0.036356 0.47884 -1.6193 2.3106 -0.22072 -4.6971 -1.411 -5.7823 -0.75544 1.4206 2.6604 -0.69702 -3.4293 2.0552 1.175 1.8199 -3.7845 -4.6111 4.2345 1.988 -0.17466 -3.2048 -2.208 2.7664 -1.7635 -2.9372 -2.4831 -1.5827 -0.55351 -0.13931 -0.78433 1.4004 4.8767 0.47207 -1.1223 -1.144 -0.24854 -0.44545 -4.7431 -0.69157 -1.5759 -1.8307 1.5728 2.7307 -0.62225 -0.65639 1.0229 -3.4065 5.8378 0.16818 -1.0705 1.5911 1.5755 -6.2511 0.11749 -6.394 3.6378 2.8664 4.0851 -1.7303 -0.384 0.18738 2.7788 
__label__Feminism 4.3432 -4.1023 3.7704 3.7924 -0.28156 2.8363 -2.4322 -1.5332 -6.0151 -4.4116 0.87608 0.20747 -7.6357 -4.7345 0.45428 4.4126 -1.5342 -1.6101 0.082782 3.1327 1.3058 0.37001 -5.6022 -2.2361 -4.8494 1.4762 4.8775 2.9716 2.161 -2.4371 4.1886 3.362 2.8646 0.18403 2.2425 0.67835 -2.0758 5.7957 3.9524 1.8553 -4.4831 -1.7047 1.911 0.69852 -0.22183 -3.6043 1.1439 2.323 1.8694 -1.7759 1.5117 -1.1381 0.76022 -0.7533 -0.45716 -1.8809 -3.0026 -0.39289 3.8203 2.5532 2.8929 -3.1073 -1.2888 -1.156 -0.67677 0.23853 0.51197 -1.405 0.42626 -1.0311 2.6853 3.5067 1.4888 1.8507 0.021411 0.5979 -0.77537 0.94845 -0.24722 -0.066326 0.44852 -1.8165 -0.204 2.3148 0.60924 0.29041 1.8419 -0.76503 0.044343 -1.431 -1.3677 -0.44664 -0.93527 -3.077 0.23292 -0.080139 -0.3333 -1.8278 1.9651 -0.50333 
__label__SocialJusticeInAction -0.25987 -4.9336 2.7696 0.099919 -2.7962 -0.14731 -1.113 -2.2957 -2.6402 -1.8212 1.4267 1.1628 -3.4719 -3.7783 1.0985 0.77718 0.64028 1.0864 2.2739 2.6155 -0.26348 -2.4501 -2.7788 0.76988 0.8828 0.42714 -2.7541 1.504 3.5466 -4.3089 0.87318 1.1409 -1.7892 0.63551 0.86393 0.96291 0.4273 3.5247 2.4833 -0.36082 -0.44455 -1.0195 0.18179 1.6201 -2.095 -2.2026 -0.25823 -0.38852 -1.4237 -0.68621 1.7237 0.51155 1.4701 -2.8229 -1.4445 -0.45078 0.15848 -0.12632 0.49384 0.73078 -1.4552 1.4489 -0.49428 1.6639 -3.46 1.3561 -2.612 0.72053 -1.8538 0.46966 4.7455 1.3306 -0.43389 -0.85465 -1.1844 1.1522 -1.7329 0.24915 -2.439 1.9657 1.6598 -4.2934 -2.9666 4.6609 -2.4819 -0.37521 -0.2473 0.40515 2.7091 1.5439 -4.0647 -1.2169 -3.6505 3.1297 1.5143 1.5677 0.17309 0.24771 2.9854 0.86375 
__label__Liberal 2.3743 -4.408 3.3934 0.50402 -0.55799 -1.83 0.078699 -0.99519 -2.3027 -0.27512 1.2306 -1.4369 2.1347 -1.0023 1.093 -1.4001 1.0385 2.123 -1.8342 1.3552 0.21153 -2.4948 0.20126 2.1008 -2.5167 1.053 -0.85362 -1.0191 -2.3618 -0.75146 1.3829 1.7957 1.1848 3.0875 1.0088 0.064515 0.05896 2.1796 2.9264 1.6887 -0.54217 -0.38599 1.2777 -0.19437 5.6967 0.9841 -1.3776 0.83469 2.7098 0.61841 0.40191 -2.1428 3.4419 0.85294 0.99787 1.8912 1.6166 -0.1311 -3.1982 -1.7071 2.0566 -1.3611 -0.47372 -1.9889 3.6041 0.61893 3.268 -1.9241 -4.762 -4.1001 2.0558 -3.3208 3.1475 -1.1698 -0.96996 1.0918 -4.5219 -3.7864 -0.51502 -0.25691 3.4767 -2.6519 -5.8764 1.573 1.7406 2.0975 0.45494 -1.2915 -0.33755 2.194 -2.2331 -0.11532 -0.88092 1.6672 -0.78728 2.5031 -2.3884 -0.98549 1.5183 1.8897 
__label__WhiteRights -0.66609 -2.9927 2.4107 0.013245 -1.6319 -1.839 1.5187 1.8294 -1.2589 -0.94495 -1.4318 -0.99372 -0.2562 -2.9353 1.6056 -1.9031 0.031113 -0.80956 0.708 3.228 -1.2994 -2.51 1.8861 1.6219 3.7316 0.42833 -4.5707 -0.95698 4.7292 -4.7314 -1.434 -3.0095 -0.98581 -1.9578 -1.3059 -1.4985 -0.46035 1.2581 0.14371 0.11692 -0.67355 -3.1778 -3.9906 -1.5461 -4.1004 -0.15622 -0.8754 0.70413 0.045289 -3.2638 3.0801 -0.60073 3.7091 -3.44 -2.0773 4.1419 2.5348 0.20608 -3.3957 -3.3683 1.5622 -0.31611 -3.4661 -1.0623 0.99426 -1.0746 2.278 -1.0579 1.1906 1.7365 1.997 -3.6199 -1.4132 -2.1503 2.0969 -0.88307 -0.72851 -1.3586 -3.0187 3.4457 2.5074 -3.8692 -0.99197 -0.50138 -4.4292 1.4461 -0.87796 -2.8693 2.2109 0.80555 -6.7327 -1.2481 -6.199 6.7104 1.1869 6.4733 -0.43937 -0.29876 -0.68701 1.7601 
__label__onguardforthee 0.98263 -1.7118 1.2218 3.1653 -0.82793 -1.2934 -0.87881 -2.671 -0.51288 -3.1561 1.0915 -2.1576 -0.27702 -1.303 0.83123 -1.4865 2.5244 0.74232 0.86352 1.0419 2.6807 -4.2872 -0.098394 4.3765 1.3498 1.5582 -5.1038 0.66539 2.0172 -2.4758 0.72605 0.64989 2.9971 3.4771 4.4177 0.16228 0.68486 3.6641 0.99594 2.8506 -0.83275 -1.3172 -1.138 -1.9926 -1.3167 1.7699 -0.14672 2.7419 1.1442 -0.9998 3.9231 -1.568 2.9835 -2.4249 -2.3289 1.8048 1.6501 -1.9591 -0.29918 -0.95406 1.2636 0.68374 -1.1781 0.53121 -1.7129 1.5563 0.62042 -1.3076 -1.8057 -0.82331 5.1688 -1.0646 2.9853 1.1617 -0.1749 0.3845 -3.443 -2.8566 1.0482 1.7912 -0.30065 -1.0033 -0.72109 1.9796 -0.19296 0.17307 -2.2899 1.0167 3.327 1.4242 -4.9263 -0.8338 -2.477 2.6444 1.6989 4.2021 -2.1068 -2.4933 3.6988 1.5465 
__label__whiteknighting -0.10409 -6.3589 3.7897 1.1161 -3.203 -1.0701 2.0347 -1.4123 -5.3007 -5.2919 2.0297 1.0043 -0.85781 -2.4822 0.85701 2.8575 -0.4859 1.0508 1.4653 -2.6264 -2.3004 -1.7348 1.3033 -0.75134 1.3004 0.66964 -2.7879 4.4065 4.8729 0.71484 1.8856 -0.68297 -0.70877 -2.4648 2.4193 2.3381 2.5051 4.9698 1.8459 -1.7547 -1.283 -1.6095 -1.1359 -2.5655 -5.361 -0.37791 -0.22411 -0.36252 -0.12219 -2.0985 2.3118 2.4566 2.7191 -2.3905 2.5865 -1.6904 -0.6155 -1.3264 2.2807 1.9271 -1.8332 -0.7662 -3.2885 -0.94836 -3.2353 -1.2173 0.31888 1.9889 1.7824 1.8214 4.452 1.0756 1.452 1.0806 0.72354 -0.080373 -3.6422 -0.57327 -2.0209 -0.76176 -1.333 -2.5051 -1.451 2.8281 -1.8981 -0.052712 -0.94865 -1.6456 2.0093 -0.36313 -2.3483 0.37088 -2.3177 0.2318 3.3896 0.67253 2.7905 0.89287 1.4665 -0.54353 
__label__socialjustice101 3.3416 -3.3389 1.937 1.3054 -2.9803 0.37291 -1.4161 -0.54993 -4.3537 -3.8219 0.19134 1.0858 -5.2443 -4.3098 0.64821 1.0783 -0.89604 -5.5834 -1.5201 3.2895 0.99164 -2.6792 -2.2496 1.276 -1.1297 2.8312 0.20258 0.92913 1.2155 -5.9484 3.6204 2.261 3.9146 2.2926 4.9064 -0.19076 -1.3823 3.1698 -0.30222 0.95141 -4.6526 -2.9916 -1.6019 -3.0231 -0.30392 -0.86735 0.92646 0.17465 2.1827 -0.96905 1.1576 -4.2109 4.2214 -1.2936 0.60881 2.1792 -2.5854 -0.91187 0.92592 -1.0496 1.8319 1.5773 -3.0772 -1.9763 -2.7785 -1.9804 1.032 0.3822 -1.0047 -0.58798 4.0725 3.5176 0.58646 -0.36532 2.2257 1.4306 -2.3257 -2.0054 -0.05445 1.1011 3.0223 0.12228 -0.21399 3.9399 3.1923 -0.019306 0.61623 -1.3136 1.695 0.093865 0.065872 -0.58062 -2.2406 0.84853 -0.56718 3.1162 -1.5152 -5.3097 2.484 -1.8672 
